<?xml version="1.0"?>
<opencv_storage>
<cascade>
  <stageType>BOOST</stageType>
  <featureType>HAAR</featureType>
  <height>20</height>
  <width>20</width>
  <stageParams>
    <boostType>GAB</boostType>
    <minHitRate>9.9500000476837158e-01</minHitRate>
    <maxFalseAlarm>5.0000000000000000e-01</maxFalseAlarm>
    <weightTrimRate>9.4999999999999996e-01</weightTrimRate>
    <maxDepth>1</maxDepth>
    <maxWeakCount>100</maxWeakCount></stageParams>
  <featureParams>
    <maxCatCount>0</maxCatCount>
    <featSize>1</featSize>
    <mode>BASIC</mode></featureParams>
  <stageNum>5</stageNum>
  <stages>
    <!-- stage 0 -->
    <_>
      <maxWeakCount>5</maxWeakCount>
      <stageThreshold>-8.3809930086135864e-01</stageThreshold>
      <weakClassifiers>
        <_>
          <internalNodes>
            0 -1 14 8.4831260144710541e-02</internalNodes>
          <leafValues>
            -6.3208854198455811e-01 8.2428115606307983e-01</leafValues></_>
        <_>
          <internalNodes>
            0 -1 11 -9.8177742958068848e-01</internalNodes>
          <leafValues>
            6.2821286916732788e-01 -8.0484950542449951e-01</leafValues></_>
        <_>
          <internalNodes>
            0 -1 4 -5.6284673511981964e-02</internalNodes>
          <leafValues>
            5.9946769475936890e-01 -6.5940922498703003e-01</leafValues></_>
        <_>
          <internalNodes>
            0 -1 2 -5.1532857120037079e-02</internalNodes>
          <leafValues>
            4.5866230130195618e-01 -7.6401197910308838e-01</leafValues></_>
        <_>
          <internalNodes>
            0 -1 22 1.4645943045616150e-01</internalNodes>
          <leafValues>
            -4.5929124951362610e-01 7.1293842792510986e-01</leafValues></_></weakClassifiers></_>
    <!-- stage 1 -->
    <_>
      <maxWeakCount>6</maxWeakCount>
      <stageThreshold>-9.7326844930648804e-01</stageThreshold>
      <weakClassifiers>
        <_>
          <internalNodes>
            0 -1 25 4.7895967960357666e-02</internalNodes>
          <leafValues>
            -6.4561402797698975e-01 6.7117440700531006e-01</leafValues></_>
        <_>
          <internalNodes>
            0 -1 17 -1.0778237879276276e-01</internalNodes>
          <leafValues>
            6.0725080966949463e-01 -5.6065481901168823e-01</leafValues></_>
        <_>
          <internalNodes>
            0 -1 9 -8.8199321180582047e-03</internalNodes>
          <leafValues>
            3.8261422514915466e-01 -7.8964829444885254e-01</leafValues></_>
        <_>
          <internalNodes>
            0 -1 5 -1.0481509566307068e-01</internalNodes>
          <leafValues>
            5.0118851661682129e-01 -5.7328742742538452e-01</leafValues></_>
        <_>
          <internalNodes>
            0 -1 16 2.3218000307679176e-02</internalNodes>
          <leafValues>
            -7.9466658830642700e-01 3.0947855114936829e-01</leafValues></_>
        <_>
          <internalNodes>
            0 -1 30 -1.9624948501586914e-02</internalNodes>
          <leafValues>
            1.4386421442031860e-01 -9.3419897556304932e-01</leafValues></_></weakClassifiers></_>
    <!-- stage 2 -->
    <_>
      <maxWeakCount>6</maxWeakCount>
      <stageThreshold>-9.2390894889831543e-01</stageThreshold>
      <weakClassifiers>
        <_>
          <internalNodes>
            0 -1 3 -4.1507855057716370e-03</internalNodes>
          <leafValues>
            5.7124680280685425e-01 -8.0148881673812866e-01</leafValues></_>
        <_>
          <internalNodes>
            0 -1 24 8.0979749560356140e-02</internalNodes>
          <leafValues>
            -7.0071274042129517e-01 4.6319431066513062e-01</leafValues></_>
        <_>
          <internalNodes>
            0 -1 19 -1.3203233480453491e-01</internalNodes>
          <leafValues>
            5.9226316213607788e-01 -6.4556461572647095e-01</leafValues></_>
        <_>
          <internalNodes>
            0 -1 13 1.2566345930099487e-01</internalNodes>
          <leafValues>
            -5.8848929405212402e-01 3.8444307446479797e-01</leafValues></_>
        <_>
          <internalNodes>
            0 -1 1 -1.0127454996109009e-01</internalNodes>
          <leafValues>
            2.6220434904098511e-01 -7.6605808734893799e-01</leafValues></_>
        <_>
          <internalNodes>
            0 -1 20 -2.2281423211097717e-02</internalNodes>
          <leafValues>
            -9.5333194732666016e-01 2.3273661732673645e-01</leafValues></_></weakClassifiers></_>
    <!-- stage 3 -->
    <_>
      <maxWeakCount>7</maxWeakCount>
      <stageThreshold>-8.1302052736282349e-01</stageThreshold>
      <weakClassifiers>
        <_>
          <internalNodes>
            0 -1 28 -1.6831081360578537e-02</internalNodes>
          <leafValues>
            5.3204727172851562e-01 -7.6086956262588501e-01</leafValues></_>
        <_>
          <internalNodes>
            0 -1 6 -1.0666663944721222e-01</internalNodes>
          <leafValues>
            4.8656311631202698e-01 -5.4611164331436157e-01</leafValues></_>
        <_>
          <internalNodes>
            0 -1 8 1.5599691867828369e-01</internalNodes>
          <leafValues>
            -5.7929229736328125e-01 5.0893181562423706e-01</leafValues></_>
        <_>
          <internalNodes>
            0 -1 23 1.0949301719665527e-01</internalNodes>
          <leafValues>
            -6.0674738883972168e-01 3.6987099051475525e-01</leafValues></_>
        <_>
          <internalNodes>
            0 -1 0 -8.8796596974134445e-03</internalNodes>
          <leafValues>
            2.1632106602191925e-01 -7.5338530540466309e-01</leafValues></_>
        <_>
          <internalNodes>
            0 -1 31 -1.9001772161573172e-03</internalNodes>
          <leafValues>
            -7.7683311700820923e-01 2.0857559144496918e-01</leafValues></_>
        <_>
          <internalNodes>
            0 -1 26 -1.4321976341307163e-03</internalNodes>
          <leafValues>
            -7.9919481277465820e-01 1.6687957942485809e-01</leafValues></_></weakClassifiers></_>
    <!-- stage 4 -->
    <_>
      <maxWeakCount>9</maxWeakCount>
      <stageThreshold>-1.0213145017623901e+00</stageThreshold>
      <weakClassifiers>
        <_>
          <internalNodes>
            0 -1 18 -1.3304281234741211e-01</internalNodes>
          <leafValues>
            6.7023169994354248e-01 -2.0750293135643005e-01</leafValues></_>
        <_>
          <internalNodes>
            0 -1 32 -1.6708567738533020e-02</internalNodes>
          <leafValues>
            3.3127564191818237e-01 -7.0210421085357666e-01</leafValues></_>
        <_>
          <internalNodes>
            0 -1 15 8.6329482495784760e-02</internalNodes>
          <leafValues>
            -5.6169772148132324e-01 3.8764241337776184e-01</leafValues></_>
        <_>
          <internalNodes>
            0 -1 7 -7.1940436959266663e-02</internalNodes>
          <leafValues>
            4.1455516219139099e-01 -3.8949123024940491e-01</leafValues></_>
        <_>
          <internalNodes>
            0 -1 29 -9.6030865097418427e-04</internalNodes>
          <leafValues>
            -7.6225137710571289e-01 2.0453868806362152e-01</leafValues></_>
        <_>
          <internalNodes>
            0 -1 12 -3.5841513890773058e-03</internalNodes>
          <leafValues>
            -9.2934668064117432e-01 1.2787373363971710e-01</leafValues></_>
        <_>
          <internalNodes>
            0 -1 10 -8.6436737328767776e-03</internalNodes>
          <leafValues>
            1.6543269157409668e-01 -7.0414412021636963e-01</leafValues></_>
        <_>
          <internalNodes>
            0 -1 21 -1.8818832933902740e-01</internalNodes>
          <leafValues>
            -7.3341947793960571e-01 1.8827396631240845e-01</leafValues></_>
        <_>
          <internalNodes>
            0 -1 27 -7.6380525715649128e-03</internalNodes>
          <leafValues>
            1.3073152303695679e-01 -9.1209459304809570e-01</leafValues></_></weakClassifiers></_></stages>
  <features>
    <_>
      <rects>
        <_>
          0 0 3 1 -1.</_>
        <_>
          1 0 1 1 2.</_></rects>
      <tilted>0</tilted></_>
    <_>
      <rects>
        <_>
          0 0 18 2 -1.</_>
        <_>
          6 0 6 2 2.</_></rects>
      <tilted>0</tilted></_>
    <_>
      <rects>
        <_>
          0 0 19 10 -1.</_>
        <_>
          0 5 19 5 2.</_></rects>
      <tilted>0</tilted></_>
    <_>
      <rects>
        <_>
          0 1 6 19 -1.</_>
        <_>
          3 1 3 19 2.</_></rects>
      <tilted>0</tilted></_>
    <_>
      <rects>
        <_>
          0 4 8 13 -1.</_>
        <_>
          4 4 4 13 2.</_></rects>
      <tilted>0</tilted></_>
    <_>
      <rects>
        <_>
          0 4 10 11 -1.</_>
        <_>
          5 4 5 11 2.</_></rects>
      <tilted>0</tilted></_>
    <_>
      <rects>
        <_>
          0 6 12 8 -1.</_>
        <_>
          6 6 6 8 2.</_></rects>
      <tilted>0</tilted></_>
    <_>
      <rects>
        <_>
          0 8 12 4 -1.</_>
        <_>
          6 8 6 4 2.</_></rects>
      <tilted>0</tilted></_>
    <_>
      <rects>
        <_>
          0 10 18 10 -1.</_>
        <_>
          0 15 18 5 2.</_></rects>
      <tilted>0</tilted></_>
    <_>
      <rects>
        <_>
          0 19 3 1 -1.</_>
        <_>
          1 19 1 1 2.</_></rects>
      <tilted>0</tilted></_>
    <_>
      <rects>
        <_>
          1 19 3 1 -1.</_>
        <_>
          2 19 1 1 2.</_></rects>
      <tilted>0</tilted></_>
    <_>
      <rects>
        <_>
          2 0 18 20 -1.</_>
        <_>
          8 0 6 20 2.</_></rects>
      <tilted>0</tilted></_>
    <_>
      <rects>
        <_>
          2 18 14 2 -1.</_>
        <_>
          2 19 14 1 2.</_></rects>
      <tilted>0</tilted></_>
    <_>
      <rects>
        <_>
          4 10 14 10 -1.</_>
        <_>
          4 15 14 5 2.</_></rects>
      <tilted>0</tilted></_>
    <_>
      <rects>
        <_>
          5 10 11 10 -1.</_>
        <_>
          5 15 11 5 2.</_></rects>
      <tilted>0</tilted></_>
    <_>
      <rects>
        <_>
          5 12 12 8 -1.</_>
        <_>
          5 16 12 4 2.</_></rects>
      <tilted>0</tilted></_>
    <_>
      <rects>
        <_>
          5 12 14 8 -1.</_>
        <_>
          5 16 14 4 2.</_></rects>
      <tilted>0</tilted></_>
    <_>
      <rects>
        <_>
          6 0 8 12 -1.</_>
        <_>
          6 6 8 6 2.</_></rects>
      <tilted>0</tilted></_>
    <_>
      <rects>
        <_>
          6 0 10 10 -1.</_>
        <_>
          6 5 10 5 2.</_></rects>
      <tilted>0</tilted></_>
    <_>
      <rects>
        <_>
          7 0 13 12 -1.</_>
        <_>
          7 6 13 6 2.</_></rects>
      <tilted>0</tilted></_>
    <_>
      <rects>
        <_>
          8 10 2 3 -1.</_>
        <_>
          8 11 2 1 2.</_></rects>
      <tilted>0</tilted></_>
    <_>
      <rects>
        <_>
          9 5 6 10 -1.</_>
        <_>
          11 5 2 10 2.</_></rects>
      <tilted>0</tilted></_>
    <_>
      <rects>
        <_>
          10 5 10 12 -1.</_>
        <_>
          15 5 5 12 2.</_></rects>
      <tilted>0</tilted></_>
    <_>
      <rects>
        <_>
          10 5 10 14 -1.</_>
        <_>
          15 5 5 14 2.</_></rects>
      <tilted>0</tilted></_>
    <_>
      <rects>
        <_>
          12 3 8 16 -1.</_>
        <_>
          16 3 4 16 2.</_></rects>
      <tilted>0</tilted></_>
    <_>
      <rects>
        <_>
          12 5 8 10 -1.</_>
        <_>
          16 5 4 10 2.</_></rects>
      <tilted>0</tilted></_>
    <_>
      <rects>
        <_>
          15 18 5 2 -1.</_>
        <_>
          15 19 5 1 2.</_></rects>
      <tilted>0</tilted></_>
    <_>
      <rects>
        <_>
          16 0 3 1 -1.</_>
        <_>
          17 0 1 1 2.</_></rects>
      <tilted>0</tilted></_>
    <_>
      <rects>
        <_>
          17 0 3 2 -1.</_>
        <_>
          18 0 1 2 2.</_></rects>
      <tilted>0</tilted></_>
    <_>
      <rects>
        <_>
          17 4 2 15 -1.</_>
        <_>
          18 4 1 15 2.</_></rects>
      <tilted>0</tilted></_>
    <_>
      <rects>
        <_>
          17 17 3 3 -1.</_>
        <_>
          18 17 1 3 2.</_></rects>
      <tilted>0</tilted></_>
    <_>
      <rects>
        <_>
          18 2 2 13 -1.</_>
        <_>
          19 2 1 13 2.</_></rects>
      <tilted>0</tilted></_>
    <_>
      <rects>
        <_>
          19 12 1 6 -1.</_>
        <_>
          19 14 1 2 2.</_></rects>
      <tilted>0</tilted></_></features></cascade>
</opencv_storage>
