<?xml version="1.0"?>
<opencv_storage>
<cascade>
  <stageType>BOOST</stageType>
  <featureType>HAAR</featureType>
  <height>20</height>
  <width>20</width>
  <stageParams>
    <boostType>GAB</boostType>
    <minHitRate>9.9500000476837158e-01</minHitRate>
    <maxFalseAlarm>5.0000000000000000e-01</maxFalseAlarm>
    <weightTrimRate>9.4999999999999996e-01</weightTrimRate>
    <maxDepth>1</maxDepth>
    <maxWeakCount>100</maxWeakCount></stageParams>
  <featureParams>
    <maxCatCount>0</maxCatCount>
    <featSize>1</featSize>
    <mode>BASIC</mode></featureParams>
  <stageNum>15</stageNum>
  <stages>
    <!-- stage 0 -->
    <_>
      <maxWeakCount>5</maxWeakCount>
      <stageThreshold>-8.3809930086135864e-01</stageThreshold>
      <weakClassifiers>
        <_>
          <internalNodes>
            0 -1 94 8.4831260144710541e-02</internalNodes>
          <leafValues>
            -6.3208854198455811e-01 8.2428115606307983e-01</leafValues></_>
        <_>
          <internalNodes>
            0 -1 68 -9.8177742958068848e-01</internalNodes>
          <leafValues>
            6.2821286916732788e-01 -8.0484950542449951e-01</leafValues></_>
        <_>
          <internalNodes>
            0 -1 22 -5.6284673511981964e-02</internalNodes>
          <leafValues>
            5.9946769475936890e-01 -6.5940922498703003e-01</leafValues></_>
        <_>
          <internalNodes>
            0 -1 11 -5.1532857120037079e-02</internalNodes>
          <leafValues>
            4.5866230130195618e-01 -7.6401197910308838e-01</leafValues></_>
        <_>
          <internalNodes>
            0 -1 131 1.4645943045616150e-01</internalNodes>
          <leafValues>
            -4.5929124951362610e-01 7.1293842792510986e-01</leafValues></_></weakClassifiers></_>
    <!-- stage 1 -->
    <_>
      <maxWeakCount>6</maxWeakCount>
      <stageThreshold>-9.7326844930648804e-01</stageThreshold>
      <weakClassifiers>
        <_>
          <internalNodes>
            0 -1 141 4.7895967960357666e-02</internalNodes>
          <leafValues>
            -6.4561402797698975e-01 6.7117440700531006e-01</leafValues></_>
        <_>
          <internalNodes>
            0 -1 102 -1.0778237879276276e-01</internalNodes>
          <leafValues>
            6.0725080966949463e-01 -5.6065481901168823e-01</leafValues></_>
        <_>
          <internalNodes>
            0 -1 46 -8.8199321180582047e-03</internalNodes>
          <leafValues>
            3.8261422514915466e-01 -7.8964829444885254e-01</leafValues></_>
        <_>
          <internalNodes>
            0 -1 23 -1.0481509566307068e-01</internalNodes>
          <leafValues>
            5.0118851661682129e-01 -5.7328742742538452e-01</leafValues></_>
        <_>
          <internalNodes>
            0 -1 98 2.3218000307679176e-02</internalNodes>
          <leafValues>
            -7.9466658830642700e-01 3.0947855114936829e-01</leafValues></_>
        <_>
          <internalNodes>
            0 -1 172 -1.9624948501586914e-02</internalNodes>
          <leafValues>
            1.4386421442031860e-01 -9.3419897556304932e-01</leafValues></_></weakClassifiers></_>
    <!-- stage 2 -->
    <_>
      <maxWeakCount>6</maxWeakCount>
      <stageThreshold>-9.2390894889831543e-01</stageThreshold>
      <weakClassifiers>
        <_>
          <internalNodes>
            0 -1 17 -4.1507855057716370e-03</internalNodes>
          <leafValues>
            5.7124680280685425e-01 -8.0148881673812866e-01</leafValues></_>
        <_>
          <internalNodes>
            0 -1 140 8.0979749560356140e-02</internalNodes>
          <leafValues>
            -7.0071274042129517e-01 4.6319431066513062e-01</leafValues></_>
        <_>
          <internalNodes>
            0 -1 116 -1.3203233480453491e-01</internalNodes>
          <leafValues>
            5.9226316213607788e-01 -6.4556461572647095e-01</leafValues></_>
        <_>
          <internalNodes>
            0 -1 85 1.2566345930099487e-01</internalNodes>
          <leafValues>
            -5.8848929405212402e-01 3.8444307446479797e-01</leafValues></_>
        <_>
          <internalNodes>
            0 -1 8 -1.0127454996109009e-01</internalNodes>
          <leafValues>
            2.6220434904098511e-01 -7.6605808734893799e-01</leafValues></_>
        <_>
          <internalNodes>
            0 -1 120 -2.2281423211097717e-02</internalNodes>
          <leafValues>
            -9.5333194732666016e-01 2.3273661732673645e-01</leafValues></_></weakClassifiers></_>
    <!-- stage 3 -->
    <_>
      <maxWeakCount>7</maxWeakCount>
      <stageThreshold>-8.1302052736282349e-01</stageThreshold>
      <weakClassifiers>
        <_>
          <internalNodes>
            0 -1 165 -1.6831081360578537e-02</internalNodes>
          <leafValues>
            5.3204727172851562e-01 -7.6086956262588501e-01</leafValues></_>
        <_>
          <internalNodes>
            0 -1 28 -1.0666663944721222e-01</internalNodes>
          <leafValues>
            4.8656311631202698e-01 -5.4611164331436157e-01</leafValues></_>
        <_>
          <internalNodes>
            0 -1 33 1.5599691867828369e-01</internalNodes>
          <leafValues>
            -5.7929229736328125e-01 5.0893181562423706e-01</leafValues></_>
        <_>
          <internalNodes>
            0 -1 132 1.0949301719665527e-01</internalNodes>
          <leafValues>
            -6.0674738883972168e-01 3.6987099051475525e-01</leafValues></_>
        <_>
          <internalNodes>
            0 -1 0 -8.8796596974134445e-03</internalNodes>
          <leafValues>
            2.1632106602191925e-01 -7.5338530540466309e-01</leafValues></_>
        <_>
          <internalNodes>
            0 -1 180 -1.9001772161573172e-03</internalNodes>
          <leafValues>
            -7.7683311700820923e-01 2.0857559144496918e-01</leafValues></_>
        <_>
          <internalNodes>
            0 -1 160 -1.4321976341307163e-03</internalNodes>
          <leafValues>
            -7.9919481277465820e-01 1.6687957942485809e-01</leafValues></_></weakClassifiers></_>
    <!-- stage 4 -->
    <_>
      <maxWeakCount>9</maxWeakCount>
      <stageThreshold>-1.0213145017623901e+00</stageThreshold>
      <weakClassifiers>
        <_>
          <internalNodes>
            0 -1 105 -1.3304281234741211e-01</internalNodes>
          <leafValues>
            6.7023169994354248e-01 -2.0750293135643005e-01</leafValues></_>
        <_>
          <internalNodes>
            0 -1 191 -1.6708567738533020e-02</internalNodes>
          <leafValues>
            3.3127564191818237e-01 -7.0210421085357666e-01</leafValues></_>
        <_>
          <internalNodes>
            0 -1 97 8.6329482495784760e-02</internalNodes>
          <leafValues>
            -5.6169772148132324e-01 3.8764241337776184e-01</leafValues></_>
        <_>
          <internalNodes>
            0 -1 31 -7.1940436959266663e-02</internalNodes>
          <leafValues>
            4.1455516219139099e-01 -3.8949123024940491e-01</leafValues></_>
        <_>
          <internalNodes>
            0 -1 170 -9.6030865097418427e-04</internalNodes>
          <leafValues>
            -7.6225137710571289e-01 2.0453868806362152e-01</leafValues></_>
        <_>
          <internalNodes>
            0 -1 73 -3.5841513890773058e-03</internalNodes>
          <leafValues>
            -9.2934668064117432e-01 1.2787373363971710e-01</leafValues></_>
        <_>
          <internalNodes>
            0 -1 63 -8.6436737328767776e-03</internalNodes>
          <leafValues>
            1.6543269157409668e-01 -7.0414412021636963e-01</leafValues></_>
        <_>
          <internalNodes>
            0 -1 122 -1.8818832933902740e-01</internalNodes>
          <leafValues>
            -7.3341947793960571e-01 1.8827396631240845e-01</leafValues></_>
        <_>
          <internalNodes>
            0 -1 161 -7.6380525715649128e-03</internalNodes>
          <leafValues>
            1.3073152303695679e-01 -9.1209459304809570e-01</leafValues></_></weakClassifiers></_>
    <!-- stage 5 -->
    <_>
      <maxWeakCount>6</maxWeakCount>
      <stageThreshold>-8.4161931276321411e-01</stageThreshold>
      <weakClassifiers>
        <_>
          <internalNodes>
            0 -1 134 -1.0679364204406738e-02</internalNodes>
          <leafValues>
            -8.7277352809906006e-01 5.8027815818786621e-01</leafValues></_>
        <_>
          <internalNodes>
            0 -1 24 -3.4108243882656097e-02</internalNodes>
          <leafValues>
            2.5432670116424561e-01 -6.8959081172943115e-01</leafValues></_>
        <_>
          <internalNodes>
            0 -1 142 7.4391558766365051e-02</internalNodes>
          <leafValues>
            -5.1860398054122925e-01 3.2227587699890137e-01</leafValues></_>
        <_>
          <internalNodes>
            0 -1 40 7.9480875283479691e-03</internalNodes>
          <leafValues>
            -6.5896874666213989e-01 2.5124993920326233e-01</leafValues></_>
        <_>
          <internalNodes>
            0 -1 49 -8.9256530627608299e-03</internalNodes>
          <leafValues>
            2.1488308906555176e-01 -7.3881447315216064e-01</leafValues></_>
        <_>
          <internalNodes>
            0 -1 48 -8.9212711900472641e-03</internalNodes>
          <leafValues>
            -6.7983567714691162e-01 2.0354856550693512e-01</leafValues></_></weakClassifiers></_>
    <!-- stage 6 -->
    <_>
      <maxWeakCount>6</maxWeakCount>
      <stageThreshold>-7.9001188278198242e-01</stageThreshold>
      <weakClassifiers>
        <_>
          <internalNodes>
            0 -1 124 -7.2580337524414062e-02</internalNodes>
          <leafValues>
            -7.8061223030090332e-01 5.5653822422027588e-01</leafValues></_>
        <_>
          <internalNodes>
            0 -1 38 -7.6732798479497433e-03</internalNodes>
          <leafValues>
            1.9690950214862823e-01 -7.6264554262161255e-01</leafValues></_>
        <_>
          <internalNodes>
            0 -1 89 -6.6848531365394592e-02</internalNodes>
          <leafValues>
            1.9323405623435974e-01 -7.0719194412231445e-01</leafValues></_>
        <_>
          <internalNodes>
            0 -1 147 4.6104587614536285e-02</internalNodes>
          <leafValues>
            -6.0423070192337036e-01 2.9385551810264587e-01</leafValues></_>
        <_>
          <internalNodes>
            0 -1 182 3.6917079705744982e-04</internalNodes>
          <leafValues>
            1.3356864452362061e-01 -7.8081524372100830e-01</leafValues></_>
        <_>
          <internalNodes>
            0 -1 133 -3.8246959447860718e-02</internalNodes>
          <leafValues>
            -9.0285021066665649e-01 1.3258770108222961e-01</leafValues></_></weakClassifiers></_>
    <!-- stage 7 -->
    <_>
      <maxWeakCount>10</maxWeakCount>
      <stageThreshold>-6.4711034297943115e-01</stageThreshold>
      <weakClassifiers>
        <_>
          <internalNodes>
            0 -1 64 -1.5200285241007805e-02</internalNodes>
          <leafValues>
            4.5038166642189026e-01 -7.0588237047195435e-01</leafValues></_>
        <_>
          <internalNodes>
            0 -1 104 -1.6229026019573212e-01</internalNodes>
          <leafValues>
            4.1161999106407166e-01 -4.4124242663383484e-01</leafValues></_>
        <_>
          <internalNodes>
            0 -1 18 -1.2800759077072144e-01</internalNodes>
          <leafValues>
            3.4610000252723694e-01 -5.1414543390274048e-01</leafValues></_>
        <_>
          <internalNodes>
            0 -1 188 -8.5702016949653625e-03</internalNodes>
          <leafValues>
            2.0780698955059052e-01 -6.5280812978744507e-01</leafValues></_>
        <_>
          <internalNodes>
            0 -1 34 1.2045066803693771e-01</internalNodes>
          <leafValues>
            -5.6228876113891602e-01 2.2600691020488739e-01</leafValues></_>
        <_>
          <internalNodes>
            0 -1 1 3.0853054486215115e-03</internalNodes>
          <leafValues>
            1.2234607338905334e-01 -7.5205206871032715e-01</leafValues></_>
        <_>
          <internalNodes>
            0 -1 179 -4.1912135202437639e-04</internalNodes>
          <leafValues>
            -7.4319696426391602e-01 1.3048389554023743e-01</leafValues></_>
        <_>
          <internalNodes>
            0 -1 69 1.6759824939072132e-03</internalNodes>
          <leafValues>
            1.4014327526092529e-01 -6.9776976108551025e-01</leafValues></_>
        <_>
          <internalNodes>
            0 -1 176 -3.8981130346655846e-03</internalNodes>
          <leafValues>
            -8.8857007026672363e-01 9.8914004862308502e-02</leafValues></_>
        <_>
          <internalNodes>
            0 -1 13 4.5524325105361640e-04</internalNodes>
          <leafValues>
            1.1036410927772522e-01 -7.4309217929840088e-01</leafValues></_></weakClassifiers></_>
    <!-- stage 8 -->
    <_>
      <maxWeakCount>11</maxWeakCount>
      <stageThreshold>-1.0204440355300903e+00</stageThreshold>
      <weakClassifiers>
        <_>
          <internalNodes>
            0 -1 174 -8.7658241391181946e-03</internalNodes>
          <leafValues>
            4.4823458790779114e-01 -5.7236844301223755e-01</leafValues></_>
        <_>
          <internalNodes>
            0 -1 151 2.6349648833274841e-02</internalNodes>
          <leafValues>
            -4.7301855683326721e-01 2.9933348298072815e-01</leafValues></_>
        <_>
          <internalNodes>
            0 -1 25 -6.6510021686553955e-02</internalNodes>
          <leafValues>
            2.9327452182769775e-01 -5.1213139295578003e-01</leafValues></_>
        <_>
          <internalNodes>
            0 -1 65 -8.4576047956943512e-03</internalNodes>
          <leafValues>
            1.4207305014133453e-01 -7.0093941688537598e-01</leafValues></_>
        <_>
          <internalNodes>
            0 -1 10 -9.1290622949600220e-03</internalNodes>
          <leafValues>
            -6.7549669742584229e-01 1.7637737095355988e-01</leafValues></_>
        <_>
          <internalNodes>
            0 -1 72 -4.6226731501519680e-04</internalNodes>
          <leafValues>
            -7.6742899417877197e-01 1.1766583472490311e-01</leafValues></_>
        <_>
          <internalNodes>
            0 -1 72 5.1689625252038240e-04</internalNodes>
          <leafValues>
            1.4681449532508850e-01 -6.9641399383544922e-01</leafValues></_>
        <_>
          <internalNodes>
            0 -1 173 -1.1317058233544230e-03</internalNodes>
          <leafValues>
            -7.3724836111068726e-01 1.1435583978891373e-01</leafValues></_>
        <_>
          <internalNodes>
            0 -1 167 -3.5300636664032936e-03</internalNodes>
          <leafValues>
            -5.8198750019073486e-01 1.4966058731079102e-01</leafValues></_>
        <_>
          <internalNodes>
            0 -1 32 -1.1627922952175140e-01</internalNodes>
          <leafValues>
            5.7641339302062988e-01 -1.7329397797584534e-01</leafValues></_>
        <_>
          <internalNodes>
            0 -1 53 -1.2578445672988892e-01</internalNodes>
          <leafValues>
            3.0695962905883789e-01 -3.5465735197067261e-01</leafValues></_></weakClassifiers></_>
    <!-- stage 9 -->
    <_>
      <maxWeakCount>15</maxWeakCount>
      <stageThreshold>-8.3881652355194092e-01</stageThreshold>
      <weakClassifiers>
        <_>
          <internalNodes>
            0 -1 162 -1.0074365127366036e-04</internalNodes>
          <leafValues>
            -4.9668875336647034e-01 4.3335324525833130e-01</leafValues></_>
        <_>
          <internalNodes>
            0 -1 94 1.6509893536567688e-01</internalNodes>
          <leafValues>
            -3.4846141934394836e-01 3.7086644768714905e-01</leafValues></_>
        <_>
          <internalNodes>
            0 -1 50 -8.9358650147914886e-03</internalNodes>
          <leafValues>
            2.1360979974269867e-01 -6.3953012228012085e-01</leafValues></_>
        <_>
          <internalNodes>
            0 -1 14 -4.4974219053983688e-03</internalNodes>
          <leafValues>
            -5.4988384246826172e-01 1.4758294820785522e-01</leafValues></_>
        <_>
          <internalNodes>
            0 -1 81 -1.1680741608142853e-01</internalNodes>
          <leafValues>
            2.8818625211715698e-01 -3.5125422477722168e-01</leafValues></_>
        <_>
          <internalNodes>
            0 -1 137 -4.0004681795835495e-03</internalNodes>
          <leafValues>
            -7.5022852420806885e-01 1.2509295344352722e-01</leafValues></_>
        <_>
          <internalNodes>
            0 -1 139 5.1817414350807667e-03</internalNodes>
          <leafValues>
            1.4752128720283508e-01 -5.6065630912780762e-01</leafValues></_>
        <_>
          <internalNodes>
            0 -1 129 1.5704338252544403e-01</internalNodes>
          <leafValues>
            -3.9097633957862854e-01 2.3196560144424438e-01</leafValues></_>
        <_>
          <internalNodes>
            0 -1 168 2.7277034241706133e-03</internalNodes>
          <leafValues>
            9.9651478230953217e-02 -6.3340145349502563e-01</leafValues></_>
        <_>
          <internalNodes>
            0 -1 113 -1.7560014966875315e-03</internalNodes>
          <leafValues>
            -7.6168131828308105e-01 1.1264340579509735e-01</leafValues></_>
        <_>
          <internalNodes>
            0 -1 41 -9.1194286942481995e-03</internalNodes>
          <leafValues>
            1.4685977995395660e-01 -5.3877717256546021e-01</leafValues></_>
        <_>
          <internalNodes>
            0 -1 12 3.0798302032053471e-03</internalNodes>
          <leafValues>
            1.0299053788185120e-01 -7.4717146158218384e-01</leafValues></_>
        <_>
          <internalNodes>
            0 -1 62 -2.2370110673364252e-04</internalNodes>
          <leafValues>
            -5.4515814781188965e-01 1.2820307910442352e-01</leafValues></_>
        <_>
          <internalNodes>
            0 -1 35 2.6174066588282585e-03</internalNodes>
          <leafValues>
            1.3573029637336731e-01 -5.0515806674957275e-01</leafValues></_>
        <_>
          <internalNodes>
            0 -1 183 -1.1526480084285140e-03</internalNodes>
          <leafValues>
            -7.3231333494186401e-01 7.4315622448921204e-02</leafValues></_></weakClassifiers></_>
    <!-- stage 10 -->
    <_>
      <maxWeakCount>17</maxWeakCount>
      <stageThreshold>-9.0125745534896851e-01</stageThreshold>
      <weakClassifiers>
        <_>
          <internalNodes>
            0 -1 95 7.6096266508102417e-02</internalNodes>
          <leafValues>
            -4.7651007771492004e-01 4.2754918336868286e-01</leafValues></_>
        <_>
          <internalNodes>
            0 -1 193 3.3850430045276880e-03</internalNodes>
          <leafValues>
            1.9068032503128052e-01 -6.1066806316375732e-01</leafValues></_>
        <_>
          <internalNodes>
            0 -1 103 -7.5909942388534546e-02</internalNodes>
          <leafValues>
            1.8089318275451660e-01 -5.5745333433151245e-01</leafValues></_>
        <_>
          <internalNodes>
            0 -1 63 -8.8517349213361740e-03</internalNodes>
          <leafValues>
            1.7259867489337921e-01 -6.4600324630737305e-01</leafValues></_>
        <_>
          <internalNodes>
            0 -1 6 -3.5171199589967728e-02</internalNodes>
          <leafValues>
            1.0455904901027679e-01 -7.1520245075225830e-01</leafValues></_>
        <_>
          <internalNodes>
            0 -1 127 -8.2200225442647934e-03</internalNodes>
          <leafValues>
            -8.6132806539535522e-01 9.3455143272876740e-02</leafValues></_>
        <_>
          <internalNodes>
            0 -1 138 -6.8059585988521576e-02</internalNodes>
          <leafValues>
            -4.5297840237617493e-01 1.6462668776512146e-01</leafValues></_>
        <_>
          <internalNodes>
            0 -1 186 -4.7311587259173393e-03</internalNodes>
          <leafValues>
            -5.1036447286605835e-01 1.3792483508586884e-01</leafValues></_>
        <_>
          <internalNodes>
            0 -1 47 -5.1454366184771061e-03</internalNodes>
          <leafValues>
            -4.9156901240348816e-01 1.4681200683116913e-01</leafValues></_>
        <_>
          <internalNodes>
            0 -1 15 9.0813118731603026e-04</internalNodes>
          <leafValues>
            7.5216196477413177e-02 -7.5600522756576538e-01</leafValues></_>
        <_>
          <internalNodes>
            0 -1 177 -1.4326896052807570e-03</internalNodes>
          <leafValues>
            -7.2814339399337769e-01 7.9869411885738373e-02</leafValues></_>
        <_>
          <internalNodes>
            0 -1 175 1.4152900257613510e-04</internalNodes>
          <leafValues>
            -4.3849733471870422e-01 1.4682760834693909e-01</leafValues></_>
        <_>
          <internalNodes>
            0 -1 20 -3.9177089929580688e-01</internalNodes>
          <leafValues>
            7.0034235715866089e-02 -8.3394002914428711e-01</leafValues></_>
        <_>
          <internalNodes>
            0 -1 71 -8.5207296069711447e-04</internalNodes>
          <leafValues>
            1.3743537664413452e-01 -4.4454506039619446e-01</leafValues></_>
        <_>
          <internalNodes>
            0 -1 51 3.9294329471886158e-03</internalNodes>
          <leafValues>
            8.1373751163482666e-02 -6.9536864757537842e-01</leafValues></_>
        <_>
          <internalNodes>
            0 -1 125 -2.7681079227477312e-03</internalNodes>
          <leafValues>
            -8.8617932796478271e-01 1.1926443316042423e-02</leafValues></_>
        <_>
          <internalNodes>
            0 -1 148 -1.1932387715205550e-03</internalNodes>
          <leafValues>
            -7.2207099199295044e-01 1.1150862276554108e-01</leafValues></_></weakClassifiers></_>
    <!-- stage 11 -->
    <_>
      <maxWeakCount>21</maxWeakCount>
      <stageThreshold>-9.2984777688980103e-01</stageThreshold>
      <weakClassifiers>
        <_>
          <internalNodes>
            0 -1 36 -5.3150062449276447e-03</internalNodes>
          <leafValues>
            -4.9407115578651428e-01 4.0650406479835510e-01</leafValues></_>
        <_>
          <internalNodes>
            0 -1 52 -6.7024044692516327e-03</internalNodes>
          <leafValues>
            -5.6778240203857422e-01 1.5405175089836121e-01</leafValues></_>
        <_>
          <internalNodes>
            0 -1 135 -1.5387946739792824e-02</internalNodes>
          <leafValues>
            1.2536151707172394e-01 -6.6747283935546875e-01</leafValues></_>
        <_>
          <internalNodes>
            0 -1 37 2.8463043272495270e-03</internalNodes>
          <leafValues>
            1.6681577265262604e-01 -5.5057823657989502e-01</leafValues></_>
        <_>
          <internalNodes>
            0 -1 155 4.7634389251470566e-02</internalNodes>
          <leafValues>
            -4.7269457578659058e-01 1.3695085048675537e-01</leafValues></_>
        <_>
          <internalNodes>
            0 -1 7 4.0941601619124413e-03</internalNodes>
          <leafValues>
            1.1556828767061234e-01 -6.6358429193496704e-01</leafValues></_>
        <_>
          <internalNodes>
            0 -1 56 -1.3874883297830820e-03</internalNodes>
          <leafValues>
            1.6697283089160919e-01 -4.2827877402305603e-01</leafValues></_>
        <_>
          <internalNodes>
            0 -1 57 -1.4014235930517316e-03</internalNodes>
          <leafValues>
            1.3361728191375732e-01 -5.1679581403732300e-01</leafValues></_>
        <_>
          <internalNodes>
            0 -1 114 -6.6733761923387647e-04</internalNodes>
          <leafValues>
            -6.4955389499664307e-01 9.7942046821117401e-02</leafValues></_>
        <_>
          <internalNodes>
            0 -1 115 -1.1662311851978302e-01</internalNodes>
          <leafValues>
            3.1945419311523438e-01 -2.1792049705982208e-01</leafValues></_>
        <_>
          <internalNodes>
            0 -1 153 -9.0754264965653419e-03</internalNodes>
          <leafValues>
            1.4682650566101074e-01 -4.8230662941932678e-01</leafValues></_>
        <_>
          <internalNodes>
            0 -1 39 1.5045240288600326e-03</internalNodes>
          <leafValues>
            9.1545186936855316e-02 -6.7167609930038452e-01</leafValues></_>
        <_>
          <internalNodes>
            0 -1 88 -1.8566725775599480e-03</internalNodes>
          <leafValues>
            1.6697844862937927e-01 -3.8895425200462341e-01</leafValues></_>
        <_>
          <internalNodes>
            0 -1 100 2.5936509482562542e-03</internalNodes>
          <leafValues>
            8.0148875713348389e-02 -7.4131578207015991e-01</leafValues></_>
        <_>
          <internalNodes>
            0 -1 130 1.5519264340400696e-01</internalNodes>
          <leafValues>
            -3.6387959122657776e-01 1.6415390372276306e-01</leafValues></_>
        <_>
          <internalNodes>
            0 -1 78 -4.0386682376265526e-03</internalNodes>
          <leafValues>
            -9.0347909927368164e-01 2.9757266864180565e-02</leafValues></_>
        <_>
          <internalNodes>
            0 -1 169 5.1750533748418093e-04</internalNodes>
          <leafValues>
            6.8428099155426025e-02 -6.7498242855072021e-01</leafValues></_>
        <_>
          <internalNodes>
            0 -1 45 -1.9469331949949265e-02</internalNodes>
          <leafValues>
            -4.5706009864807129e-01 1.1954233795404434e-01</leafValues></_>
        <_>
          <internalNodes>
            0 -1 4 1.8825103761628270e-03</internalNodes>
          <leafValues>
            5.5915195494890213e-02 -8.6899238824844360e-01</leafValues></_>
        <_>
          <internalNodes>
            0 -1 92 -2.9557260870933533e-01</internalNodes>
          <leafValues>
            5.5801544338464737e-02 -7.5046777725219727e-01</leafValues></_>
        <_>
          <internalNodes>
            0 -1 87 1.7616222612559795e-03</internalNodes>
          <leafValues>
            4.1953612118959427e-02 -9.6135812997817993e-01</leafValues></_></weakClassifiers></_>
    <!-- stage 12 -->
    <_>
      <maxWeakCount>26</maxWeakCount>
      <stageThreshold>-9.4544261693954468e-01</stageThreshold>
      <weakClassifiers>
        <_>
          <internalNodes>
            0 -1 154 3.7331178784370422e-02</internalNodes>
          <leafValues>
            -3.1926122307777405e-01 4.3609023094177246e-01</leafValues></_>
        <_>
          <internalNodes>
            0 -1 89 -8.8716216385364532e-02</internalNodes>
          <leafValues>
            1.8410661816596985e-01 -5.3505092859268188e-01</leafValues></_>
        <_>
          <internalNodes>
            0 -1 171 -2.8669675812125206e-03</internalNodes>
          <leafValues>
            -5.5460333824157715e-01 1.5572193264961243e-01</leafValues></_>
        <_>
          <internalNodes>
            0 -1 189 5.7329386472702026e-03</internalNodes>
          <leafValues>
            1.2431199848651886e-01 -5.2082318067550659e-01</leafValues></_>
        <_>
          <internalNodes>
            0 -1 43 -1.9070468842983246e-02</internalNodes>
          <leafValues>
            1.4318108558654785e-01 -4.6333760023117065e-01</leafValues></_>
        <_>
          <internalNodes>
            0 -1 112 9.1183736920356750e-02</internalNodes>
          <leafValues>
            -3.9163419604301453e-01 1.7119167745113373e-01</leafValues></_>
        <_>
          <internalNodes>
            0 -1 74 1.9842665642499924e-03</internalNodes>
          <leafValues>
            1.0077616572380066e-01 -5.9959548711776733e-01</leafValues></_>
        <_>
          <internalNodes>
            0 -1 79 -8.9197550551034510e-05</internalNodes>
          <leafValues>
            1.1283857375383377e-01 -5.2080267667770386e-01</leafValues></_>
        <_>
          <internalNodes>
            0 -1 42 -3.8405030500143766e-04</internalNodes>
          <leafValues>
            -6.2627255916595459e-01 7.5273580849170685e-02</leafValues></_>
        <_>
          <internalNodes>
            0 -1 42 3.9132108213379979e-04</internalNodes>
          <leafValues>
            9.1049462556838989e-02 -5.6440466642379761e-01</leafValues></_>
        <_>
          <internalNodes>
            0 -1 178 4.9495319835841656e-03</internalNodes>
          <leafValues>
            6.4399175345897675e-02 -8.0305010080337524e-01</leafValues></_>
        <_>
          <internalNodes>
            0 -1 106 -1.4813411235809326e-01</internalNodes>
          <leafValues>
            6.1424082517623901e-01 -1.0441987961530685e-01</leafValues></_>
        <_>
          <internalNodes>
            0 -1 83 -9.1518253087997437e-02</internalNodes>
          <leafValues>
            4.9317923188209534e-01 -1.4065276086330414e-01</leafValues></_>
        <_>
          <internalNodes>
            0 -1 76 5.3930945694446564e-02</internalNodes>
          <leafValues>
            -1.7378108203411102e-01 4.6096894145011902e-01</leafValues></_>
        <_>
          <internalNodes>
            0 -1 195 -2.3973518982529640e-03</internalNodes>
          <leafValues>
            -9.0523922443389893e-01 8.0782450735569000e-02</leafValues></_>
        <_>
          <internalNodes>
            0 -1 107 -7.6004490256309509e-03</internalNodes>
          <leafValues>
            -6.3040518760681152e-01 4.6468477696180344e-02</leafValues></_>
        <_>
          <internalNodes>
            0 -1 3 -4.3146582902409136e-04</internalNodes>
          <leafValues>
            1.1571282148361206e-01 -4.8209005594253540e-01</leafValues></_>
        <_>
          <internalNodes>
            0 -1 30 -2.1632732450962067e-01</internalNodes>
          <leafValues>
            3.3290761709213257e-01 -1.6226650774478912e-01</leafValues></_>
        <_>
          <internalNodes>
            0 -1 80 7.2732374072074890e-02</internalNodes>
          <leafValues>
            -1.4669701457023621e-01 3.8891786336898804e-01</leafValues></_>
        <_>
          <internalNodes>
            0 -1 150 2.4201506748795509e-02</internalNodes>
          <leafValues>
            -1.4633119106292725e-01 3.5741952061653137e-01</leafValues></_>
        <_>
          <internalNodes>
            0 -1 60 -2.1313102915883064e-02</internalNodes>
          <leafValues>
            5.0965929031372070e-01 -1.1863680183887482e-01</leafValues></_>
        <_>
          <internalNodes>
            0 -1 121 -3.6755211651325226e-02</internalNodes>
          <leafValues>
            4.1213250160217285e-01 -1.0531657189130783e-01</leafValues></_>
        <_>
          <internalNodes>
            0 -1 55 -2.5764518976211548e-01</internalNodes>
          <leafValues>
            4.8012813925743103e-01 -1.0051790624856949e-01</leafValues></_>
        <_>
          <internalNodes>
            0 -1 194 -9.6605084836483002e-03</internalNodes>
          <leafValues>
            1.6629348695278168e-01 -3.4372341632843018e-01</leafValues></_>
        <_>
          <internalNodes>
            0 -1 58 -3.1301236152648926e-01</internalNodes>
          <leafValues>
            -4.5190557837486267e-01 9.4366580247879028e-02</leafValues></_>
        <_>
          <internalNodes>
            0 -1 181 -6.3612102530896664e-04</internalNodes>
          <leafValues>
            -8.3913451433181763e-01 5.3878538310527802e-02</leafValues></_></weakClassifiers></_>
    <!-- stage 13 -->
    <_>
      <maxWeakCount>33</maxWeakCount>
      <stageThreshold>-8.9688456058502197e-01</stageThreshold>
      <weakClassifiers>
        <_>
          <internalNodes>
            0 -1 118 7.3783947154879570e-03</internalNodes>
          <leafValues>
            4.3253466486930847e-01 -2.8534704446792603e-01</leafValues></_>
        <_>
          <internalNodes>
            0 -1 166 4.7209905460476875e-04</internalNodes>
          <leafValues>
            -4.6913856267929077e-01 1.6733753681182861e-01</leafValues></_>
        <_>
          <internalNodes>
            0 -1 99 -8.3660706877708435e-03</internalNodes>
          <leafValues>
            1.3132828474044800e-01 -5.5994749069213867e-01</leafValues></_>
        <_>
          <internalNodes>
            0 -1 21 -1.0479576885700226e-01</internalNodes>
          <leafValues>
            1.9660124182701111e-01 -2.9509136080741882e-01</leafValues></_>
        <_>
          <internalNodes>
            0 -1 101 -6.3920505344867706e-03</internalNodes>
          <leafValues>
            -7.3652124404907227e-01 7.9772323369979858e-02</leafValues></_>
        <_>
          <internalNodes>
            0 -1 187 -2.5808280333876610e-03</internalNodes>
          <leafValues>
            -4.6463012695312500e-01 1.0766801238059998e-01</leafValues></_>
        <_>
          <internalNodes>
            0 -1 144 -3.4537196159362793e-02</internalNodes>
          <leafValues>
            2.3143795132637024e-01 -2.7346193790435791e-01</leafValues></_>
        <_>
          <internalNodes>
            0 -1 66 -1.8463216722011566e-02</internalNodes>
          <leafValues>
            1.3722304999828339e-01 -3.9365577697753906e-01</leafValues></_>
        <_>
          <internalNodes>
            0 -1 146 -2.7258269488811493e-02</internalNodes>
          <leafValues>
            -5.3472703695297241e-01 8.9328259229660034e-02</leafValues></_>
        <_>
          <internalNodes>
            0 -1 185 1.1478649452328682e-02</internalNodes>
          <leafValues>
            4.4263329356908798e-02 -5.1552820205688477e-01</leafValues></_>
        <_>
          <internalNodes>
            0 -1 159 1.7502401024103165e-03</internalNodes>
          <leafValues>
            6.9859609007835388e-02 -8.2382649183273315e-01</leafValues></_>
        <_>
          <internalNodes>
            0 -1 84 4.1670545935630798e-02</internalNodes>
          <leafValues>
            -1.0041358321905136e-01 5.1110208034515381e-01</leafValues></_>
        <_>
          <internalNodes>
            0 -1 75 -1.5643858909606934e-01</internalNodes>
          <leafValues>
            5.5983865261077881e-01 -6.0792434960603714e-02</leafValues></_>
        <_>
          <internalNodes>
            0 -1 59 -6.3937464728951454e-03</internalNodes>
          <leafValues>
            3.5074675083160400e-01 -1.7880317568778992e-01</leafValues></_>
        <_>
          <internalNodes>
            0 -1 29 -2.9517296701669693e-02</internalNodes>
          <leafValues>
            3.3216655254364014e-01 -1.4802832901477814e-01</leafValues></_>
        <_>
          <internalNodes>
            0 -1 27 -1.8229666166007519e-03</internalNodes>
          <leafValues>
            1.5029405057430267e-01 -3.4581220149993896e-01</leafValues></_>
        <_>
          <internalNodes>
            0 -1 117 -1.4353799633681774e-03</internalNodes>
          <leafValues>
            -7.4849647283554077e-01 7.0179983973503113e-02</leafValues></_>
        <_>
          <internalNodes>
            0 -1 19 1.3948890846222639e-03</internalNodes>
          <leafValues>
            7.0365570485591888e-02 -5.1480323076248169e-01</leafValues></_>
        <_>
          <internalNodes>
            0 -1 110 -2.3749074898660183e-03</internalNodes>
          <leafValues>
            -9.2369818687438965e-01 3.9839789271354675e-02</leafValues></_>
        <_>
          <internalNodes>
            0 -1 82 -2.2349510341882706e-02</internalNodes>
          <leafValues>
            3.3201727271080017e-01 -1.4658273756504059e-01</leafValues></_>
        <_>
          <internalNodes>
            0 -1 126 -7.0699900388717651e-03</internalNodes>
          <leafValues>
            7.7873483300209045e-02 -5.3889143466949463e-01</leafValues></_>
        <_>
          <internalNodes>
            0 -1 42 -6.8492698483169079e-04</internalNodes>
          <leafValues>
            -8.4497040510177612e-01 3.8895871490240097e-02</leafValues></_>
        <_>
          <internalNodes>
            0 -1 163 1.7745452933013439e-03</internalNodes>
          <leafValues>
            7.1556717157363892e-02 -5.0246012210845947e-01</leafValues></_>
        <_>
          <internalNodes>
            0 -1 164 2.2412528051063418e-04</internalNodes>
          <leafValues>
            -2.2427079081535339e-01 1.8357339501380920e-01</leafValues></_>
        <_>
          <internalNodes>
            0 -1 54 -2.5316646788269281e-03</internalNodes>
          <leafValues>
            -5.1694351434707642e-01 7.7096998691558838e-02</leafValues></_>
        <_>
          <internalNodes>
            0 -1 152 -1.3876375742256641e-03</internalNodes>
          <leafValues>
            -6.2289404869079590e-01 6.1390738934278488e-02</leafValues></_>
        <_>
          <internalNodes>
            0 -1 192 2.9441732913255692e-03</internalNodes>
          <leafValues>
            9.4979241490364075e-02 -4.2496010661125183e-01</leafValues></_>
        <_>
          <internalNodes>
            0 -1 157 -8.4332618862390518e-03</internalNodes>
          <leafValues>
            8.3907142281532288e-02 -4.7476360201835632e-01</leafValues></_>
        <_>
          <internalNodes>
            0 -1 143 -8.3263441920280457e-03</internalNodes>
          <leafValues>
            -4.3569096922874451e-01 1.0716969519853592e-01</leafValues></_>
        <_>
          <internalNodes>
            0 -1 90 3.7413477897644043e-02</internalNodes>
          <leafValues>
            -1.1568730324506760e-01 4.3063560128211975e-01</leafValues></_>
        <_>
          <internalNodes>
            0 -1 10 -1.0759267956018448e-02</internalNodes>
          <leafValues>
            -4.9166950583457947e-01 9.6009790897369385e-02</leafValues></_>
        <_>
          <internalNodes>
            0 -1 91 1.6306928591802716e-04</internalNodes>
          <leafValues>
            -1.3823662698268890e-01 3.3680886030197144e-01</leafValues></_>
        <_>
          <internalNodes>
            0 -1 119 -1.3840419705957174e-03</internalNodes>
          <leafValues>
            -7.3233425617218018e-01 7.4089653789997101e-02</leafValues></_></weakClassifiers></_>
    <!-- stage 14 -->
    <_>
      <maxWeakCount>26</maxWeakCount>
      <stageThreshold>-8.0525189638137817e-01</stageThreshold>
      <weakClassifiers>
        <_>
          <internalNodes>
            0 -1 70 -4.4443085789680481e-02</internalNodes>
          <leafValues>
            3.9777386188507080e-01 -3.8805970549583435e-01</leafValues></_>
        <_>
          <internalNodes>
            0 -1 149 3.8413010537624359e-02</internalNodes>
          <leafValues>
            -5.2728688716888428e-01 1.7180468142032623e-01</leafValues></_>
        <_>
          <internalNodes>
            0 -1 176 7.8177130490075797e-05</internalNodes>
          <leafValues>
            -4.2929598689079285e-01 1.4569775760173798e-01</leafValues></_>
        <_>
          <internalNodes>
            0 -1 44 4.0524480864405632e-03</internalNodes>
          <leafValues>
            7.9127155244350433e-02 -6.6549503803253174e-01</leafValues></_>
        <_>
          <internalNodes>
            0 -1 96 9.9794879555702209e-02</internalNodes>
          <leafValues>
            -3.3922275900840759e-01 1.7121575772762299e-01</leafValues></_>
        <_>
          <internalNodes>
            0 -1 26 7.1180779486894608e-03</internalNodes>
          <leafValues>
            1.4292341470718384e-01 -4.6376407146453857e-01</leafValues></_>
        <_>
          <internalNodes>
            0 -1 145 5.2791263442486525e-04</internalNodes>
          <leafValues>
            -3.1878885626792908e-01 1.7702473700046539e-01</leafValues></_>
        <_>
          <internalNodes>
            0 -1 136 3.5685880575329065e-03</internalNodes>
          <leafValues>
            1.0896985232830048e-01 -5.0716263055801392e-01</leafValues></_>
        <_>
          <internalNodes>
            0 -1 109 -2.6444286108016968e-01</internalNodes>
          <leafValues>
            8.8729254901409149e-02 -6.3301700353622437e-01</leafValues></_>
        <_>
          <internalNodes>
            0 -1 16 2.7162791229784489e-03</internalNodes>
          <leafValues>
            1.0895902663469315e-01 -4.8670956492424011e-01</leafValues></_>
        <_>
          <internalNodes>
            0 -1 9 -7.3716687038540840e-03</internalNodes>
          <leafValues>
            -4.3437388539314270e-01 1.1387899518013000e-01</leafValues></_>
        <_>
          <internalNodes>
            0 -1 2 -1.5840603737160563e-03</internalNodes>
          <leafValues>
            8.8028468191623688e-02 -4.5042645931243896e-01</leafValues></_>
        <_>
          <internalNodes>
            0 -1 184 -3.7692789919674397e-03</internalNodes>
          <leafValues>
            -5.1325684785842896e-01 1.0240427404642105e-01</leafValues></_>
        <_>
          <internalNodes>
            0 -1 111 -4.1334526613354683e-03</internalNodes>
          <leafValues>
            -7.0211505889892578e-01 6.3711568713188171e-02</leafValues></_>
        <_>
          <internalNodes>
            0 -1 67 -1.1181913316249847e-01</internalNodes>
          <leafValues>
            -6.2467455863952637e-01 6.0653120279312134e-02</leafValues></_>
        <_>
          <internalNodes>
            0 -1 86 2.6984489522874355e-03</internalNodes>
          <leafValues>
            9.0533815324306488e-02 -5.1563447713851929e-01</leafValues></_>
        <_>
          <internalNodes>
            0 -1 128 1.0622311383485794e-02</internalNodes>
          <leafValues>
            8.8463403284549713e-02 -5.1543885469436646e-01</leafValues></_>
        <_>
          <internalNodes>
            0 -1 108 -3.2277870923280716e-04</internalNodes>
          <leafValues>
            1.1724510788917542e-01 -3.5827484726905823e-01</leafValues></_>
        <_>
          <internalNodes>
            0 -1 5 2.3721829056739807e-03</internalNodes>
          <leafValues>
            5.7653747498989105e-02 -8.9608800411224365e-01</leafValues></_>
        <_>
          <internalNodes>
            0 -1 123 5.7323090732097626e-02</internalNodes>
          <leafValues>
            -2.4934723973274231e-01 1.8083742260932922e-01</leafValues></_>
        <_>
          <internalNodes>
            0 -1 156 1.6505932435393333e-03</internalNodes>
          <leafValues>
            6.6243387758731842e-02 -7.4021995067596436e-01</leafValues></_>
        <_>
          <internalNodes>
            0 -1 77 3.6843866109848022e-02</internalNodes>
          <leafValues>
            -1.3390101492404938e-01 3.9323708415031433e-01</leafValues></_>
        <_>
          <internalNodes>
            0 -1 93 -4.0590029209852219e-02</internalNodes>
          <leafValues>
            3.9547356963157654e-01 -1.3428822159767151e-01</leafValues></_>
        <_>
          <internalNodes>
            0 -1 158 -1.1370857246220112e-03</internalNodes>
          <leafValues>
            1.5507452189922333e-01 -3.4327310323715210e-01</leafValues></_>
        <_>
          <internalNodes>
            0 -1 190 -9.4899954274296761e-03</internalNodes>
          <leafValues>
            1.2152881175279617e-01 -3.2404866814613342e-01</leafValues></_>
        <_>
          <internalNodes>
            0 -1 61 -5.0211383495479822e-04</internalNodes>
          <leafValues>
            -6.4479088783264160e-01 6.7557923495769501e-02</leafValues></_></weakClassifiers></_></stages>
  <features>
    <_>
      <rects>
        <_>
          0 0 3 1 -1.</_>
        <_>
          1 0 1 1 2.</_></rects>
      <tilted>0</tilted></_>
    <_>
      <rects>
        <_>
          0 0 2 20 -1.</_>
        <_>
          1 0 1 20 2.</_></rects>
      <tilted>0</tilted></_>
    <_>
      <rects>
        <_>
          0 0 4 12 -1.</_>
        <_>
          2 0 2 12 2.</_></rects>
      <tilted>0</tilted></_>
    <_>
      <rects>
        <_>
          0 0 4 15 -1.</_>
        <_>
          2 0 2 15 2.</_></rects>
      <tilted>0</tilted></_>
    <_>
      <rects>
        <_>
          0 0 3 2 -1.</_>
        <_>
          0 1 3 1 2.</_></rects>
      <tilted>0</tilted></_>
    <_>
      <rects>
        <_>
          0 0 4 2 -1.</_>
        <_>
          0 1 4 1 2.</_></rects>
      <tilted>0</tilted></_>
    <_>
      <rects>
        <_>
          0 0 8 20 -1.</_>
        <_>
          4 0 4 20 2.</_></rects>
      <tilted>0</tilted></_>
    <_>
      <rects>
        <_>
          0 0 12 1 -1.</_>
        <_>
          6 0 6 1 2.</_></rects>
      <tilted>0</tilted></_>
    <_>
      <rects>
        <_>
          0 0 18 2 -1.</_>
        <_>
          6 0 6 2 2.</_></rects>
      <tilted>0</tilted></_>
    <_>
      <rects>
        <_>
          0 0 16 1 -1.</_>
        <_>
          8 0 8 1 2.</_></rects>
      <tilted>0</tilted></_>
    <_>
      <rects>
        <_>
          0 0 20 1 -1.</_>
        <_>
          10 0 10 1 2.</_></rects>
      <tilted>0</tilted></_>
    <_>
      <rects>
        <_>
          0 0 19 10 -1.</_>
        <_>
          0 5 19 5 2.</_></rects>
      <tilted>0</tilted></_>
    <_>
      <rects>
        <_>
          0 0 20 2 -1.</_>
        <_>
          0 1 20 1 2.</_></rects>
      <tilted>0</tilted></_>
    <_>
      <rects>
        <_>
          0 1 2 2 -1.</_>
        <_>
          0 1 1 1 2.</_>
        <_>
          1 2 1 1 2.</_></rects>
      <tilted>0</tilted></_>
    <_>
      <rects>
        <_>
          0 1 1 10 -1.</_>
        <_>
          0 6 1 5 2.</_></rects>
      <tilted>0</tilted></_>
    <_>
      <rects>
        <_>
          0 1 2 2 -1.</_>
        <_>
          0 2 2 1 2.</_></rects>
      <tilted>0</tilted></_>
    <_>
      <rects>
        <_>
          0 1 3 6 -1.</_>
        <_>
          0 4 3 3 2.</_></rects>
      <tilted>0</tilted></_>
    <_>
      <rects>
        <_>
          0 1 6 19 -1.</_>
        <_>
          3 1 3 19 2.</_></rects>
      <tilted>0</tilted></_>
    <_>
      <rects>
        <_>
          0 2 12 13 -1.</_>
        <_>
          6 2 6 13 2.</_></rects>
      <tilted>0</tilted></_>
    <_>
      <rects>
        <_>
          0 3 4 2 -1.</_>
        <_>
          0 4 4 1 2.</_></rects>
      <tilted>0</tilted></_>
    <_>
      <rects>
        <_>
          0 3 17 12 -1.</_>
        <_>
          0 7 17 4 2.</_></rects>
      <tilted>0</tilted></_>
    <_>
      <rects>
        <_>
          0 4 8 12 -1.</_>
        <_>
          4 4 4 12 2.</_></rects>
      <tilted>0</tilted></_>
    <_>
      <rects>
        <_>
          0 4 8 13 -1.</_>
        <_>
          4 4 4 13 2.</_></rects>
      <tilted>0</tilted></_>
    <_>
      <rects>
        <_>
          0 4 10 11 -1.</_>
        <_>
          5 4 5 11 2.</_></rects>
      <tilted>0</tilted></_>
    <_>
      <rects>
        <_>
          0 5 8 10 -1.</_>
        <_>
          4 5 4 10 2.</_></rects>
      <tilted>0</tilted></_>
    <_>
      <rects>
        <_>
          0 5 8 11 -1.</_>
        <_>
          4 5 4 11 2.</_></rects>
      <tilted>0</tilted></_>
    <_>
      <rects>
        <_>
          0 6 1 14 -1.</_>
        <_>
          0 13 1 7 2.</_></rects>
      <tilted>0</tilted></_>
    <_>
      <rects>
        <_>
          0 6 4 6 -1.</_>
        <_>
          2 6 2 6 2.</_></rects>
      <tilted>0</tilted></_>
    <_>
      <rects>
        <_>
          0 6 12 8 -1.</_>
        <_>
          6 6 6 8 2.</_></rects>
      <tilted>0</tilted></_>
    <_>
      <rects>
        <_>
          0 6 14 1 -1.</_>
        <_>
          7 6 7 1 2.</_></rects>
      <tilted>0</tilted></_>
    <_>
      <rects>
        <_>
          0 6 18 11 -1.</_>
        <_>
          9 6 9 11 2.</_></rects>
      <tilted>0</tilted></_>
    <_>
      <rects>
        <_>
          0 8 12 4 -1.</_>
        <_>
          6 8 6 4 2.</_></rects>
      <tilted>0</tilted></_>
    <_>
      <rects>
        <_>
          0 9 16 3 -1.</_>
        <_>
          8 9 8 3 2.</_></rects>
      <tilted>0</tilted></_>
    <_>
      <rects>
        <_>
          0 10 18 10 -1.</_>
        <_>
          0 15 18 5 2.</_></rects>
      <tilted>0</tilted></_>
    <_>
      <rects>
        <_>
          0 10 20 10 -1.</_>
        <_>
          0 15 20 5 2.</_></rects>
      <tilted>0</tilted></_>
    <_>
      <rects>
        <_>
          0 12 1 6 -1.</_>
        <_>
          0 15 1 3 2.</_></rects>
      <tilted>0</tilted></_>
    <_>
      <rects>
        <_>
          0 12 2 8 -1.</_>
        <_>
          0 16 2 4 2.</_></rects>
      <tilted>0</tilted></_>
    <_>
      <rects>
        <_>
          0 14 1 6 -1.</_>
        <_>
          0 17 1 3 2.</_></rects>
      <tilted>0</tilted></_>
    <_>
      <rects>
        <_>
          0 15 1 3 -1.</_>
        <_>
          0 16 1 1 2.</_></rects>
      <tilted>0</tilted></_>
    <_>
      <rects>
        <_>
          0 15 2 5 -1.</_>
        <_>
          1 15 1 5 2.</_></rects>
      <tilted>0</tilted></_>
    <_>
      <rects>
        <_>
          0 15 20 4 -1.</_>
        <_>
          0 17 20 2 2.</_></rects>
      <tilted>0</tilted></_>
    <_>
      <rects>
        <_>
          0 17 1 3 -1.</_>
        <_>
          0 18 1 1 2.</_></rects>
      <tilted>0</tilted></_>
    <_>
      <rects>
        <_>
          0 18 2 2 -1.</_>
        <_>
          0 18 1 1 2.</_>
        <_>
          1 19 1 1 2.</_></rects>
      <tilted>0</tilted></_>
    <_>
      <rects>
        <_>
          0 18 3 2 -1.</_>
        <_>
          1 18 1 2 2.</_></rects>
      <tilted>0</tilted></_>
    <_>
      <rects>
        <_>
          0 18 10 1 -1.</_>
        <_>
          5 18 5 1 2.</_></rects>
      <tilted>0</tilted></_>
    <_>
      <rects>
        <_>
          0 18 12 2 -1.</_>
        <_>
          6 18 6 2 2.</_></rects>
      <tilted>0</tilted></_>
    <_>
      <rects>
        <_>
          0 19 3 1 -1.</_>
        <_>
          1 19 1 1 2.</_></rects>
      <tilted>0</tilted></_>
    <_>
      <rects>
        <_>
          0 19 8 1 -1.</_>
        <_>
          4 19 4 1 2.</_></rects>
      <tilted>0</tilted></_>
    <_>
      <rects>
        <_>
          0 19 12 1 -1.</_>
        <_>
          6 19 6 1 2.</_></rects>
      <tilted>0</tilted></_>
    <_>
      <rects>
        <_>
          1 0 3 1 -1.</_>
        <_>
          2 0 1 1 2.</_></rects>
      <tilted>0</tilted></_>
    <_>
      <rects>
        <_>
          1 0 1 3 -1.</_>
        <_>
          1 1 1 1 2.</_></rects>
      <tilted>0</tilted></_>
    <_>
      <rects>
        <_>
          1 0 4 4 -1.</_>
        <_>
          3 0 2 4 2.</_></rects>
      <tilted>0</tilted></_>
    <_>
      <rects>
        <_>
          1 0 10 1 -1.</_>
        <_>
          6 0 5 1 2.</_></rects>
      <tilted>0</tilted></_>
    <_>
      <rects>
        <_>
          1 0 10 12 -1.</_>
        <_>
          1 6 10 6 2.</_></rects>
      <tilted>0</tilted></_>
    <_>
      <rects>
        <_>
          1 1 1 4 -1.</_>
        <_>
          1 3 1 2 2.</_></rects>
      <tilted>0</tilted></_>
    <_>
      <rects>
        <_>
          1 2 12 11 -1.</_>
        <_>
          7 2 6 11 2.</_></rects>
      <tilted>0</tilted></_>
    <_>
      <rects>
        <_>
          1 3 15 2 -1.</_>
        <_>
          1 4 15 1 2.</_></rects>
      <tilted>0</tilted></_>
    <_>
      <rects>
        <_>
          1 6 4 6 -1.</_>
        <_>
          3 6 2 6 2.</_></rects>
      <tilted>0</tilted></_>
    <_>
      <rects>
        <_>
          1 8 17 6 -1.</_>
        <_>
          1 10 17 2 2.</_></rects>
      <tilted>0</tilted></_>
    <_>
      <rects>
        <_>
          1 9 10 6 -1.</_>
        <_>
          1 9 5 3 2.</_>
        <_>
          6 12 5 3 2.</_></rects>
      <tilted>0</tilted></_>
    <_>
      <rects>
        <_>
          1 11 16 4 -1.</_>
        <_>
          1 11 8 2 2.</_>
        <_>
          9 13 8 2 2.</_></rects>
      <tilted>0</tilted></_>
    <_>
      <rects>
        <_>
          1 15 2 2 -1.</_>
        <_>
          1 15 1 1 2.</_>
        <_>
          2 16 1 1 2.</_></rects>
      <tilted>0</tilted></_>
    <_>
      <rects>
        <_>
          1 18 2 2 -1.</_>
        <_>
          1 18 1 1 2.</_>
        <_>
          2 19 1 1 2.</_></rects>
      <tilted>0</tilted></_>
    <_>
      <rects>
        <_>
          1 19 3 1 -1.</_>
        <_>
          2 19 1 1 2.</_></rects>
      <tilted>0</tilted></_>
    <_>
      <rects>
        <_>
          1 19 6 1 -1.</_>
        <_>
          3 19 2 1 2.</_></rects>
      <tilted>0</tilted></_>
    <_>
      <rects>
        <_>
          2 0 3 1 -1.</_>
        <_>
          3 0 1 1 2.</_></rects>
      <tilted>0</tilted></_>
    <_>
      <rects>
        <_>
          2 0 6 1 -1.</_>
        <_>
          4 0 2 1 2.</_></rects>
      <tilted>0</tilted></_>
    <_>
      <rects>
        <_>
          2 0 12 2 -1.</_>
        <_>
          6 0 4 2 2.</_></rects>
      <tilted>0</tilted></_>
    <_>
      <rects>
        <_>
          2 0 18 20 -1.</_>
        <_>
          8 0 6 20 2.</_></rects>
      <tilted>0</tilted></_>
    <_>
      <rects>
        <_>
          2 0 15 4 -1.</_>
        <_>
          2 2 15 2 2.</_></rects>
      <tilted>0</tilted></_>
    <_>
      <rects>
        <_>
          2 1 18 8 -1.</_>
        <_>
          2 5 18 4 2.</_></rects>
      <tilted>0</tilted></_>
    <_>
      <rects>
        <_>
          2 4 2 15 -1.</_>
        <_>
          3 4 1 15 2.</_></rects>
      <tilted>0</tilted></_>
    <_>
      <rects>
        <_>
          2 18 2 2 -1.</_>
        <_>
          2 18 1 1 2.</_>
        <_>
          3 19 1 1 2.</_></rects>
      <tilted>0</tilted></_>
    <_>
      <rects>
        <_>
          2 18 14 2 -1.</_>
        <_>
          2 19 14 1 2.</_></rects>
      <tilted>0</tilted></_>
    <_>
      <rects>
        <_>
          3 0 13 4 -1.</_>
        <_>
          3 2 13 2 2.</_></rects>
      <tilted>0</tilted></_>
    <_>
      <rects>
        <_>
          3 3 16 12 -1.</_>
        <_>
          3 3 8 6 2.</_>
        <_>
          11 9 8 6 2.</_></rects>
      <tilted>0</tilted></_>
    <_>
      <rects>
        <_>
          3 4 14 10 -1.</_>
        <_>
          3 4 7 5 2.</_>
        <_>
          10 9 7 5 2.</_></rects>
      <tilted>0</tilted></_>
    <_>
      <rects>
        <_>
          3 6 14 6 -1.</_>
        <_>
          3 6 7 3 2.</_>
        <_>
          10 9 7 3 2.</_></rects>
      <tilted>0</tilted></_>
    <_>
      <rects>
        <_>
          3 17 14 2 -1.</_>
        <_>
          3 18 14 1 2.</_></rects>
      <tilted>0</tilted></_>
    <_>
      <rects>
        <_>
          4 0 2 16 -1.</_>
        <_>
          5 0 1 16 2.</_></rects>
      <tilted>0</tilted></_>
    <_>
      <rects>
        <_>
          4 0 16 8 -1.</_>
        <_>
          4 0 8 4 2.</_>
        <_>
          12 4 8 4 2.</_></rects>
      <tilted>0</tilted></_>
    <_>
      <rects>
        <_>
          4 0 9 10 -1.</_>
        <_>
          4 5 9 5 2.</_></rects>
      <tilted>0</tilted></_>
    <_>
      <rects>
        <_>
          4 4 6 10 -1.</_>
        <_>
          4 4 3 5 2.</_>
        <_>
          7 9 3 5 2.</_></rects>
      <tilted>0</tilted></_>
    <_>
      <rects>
        <_>
          4 4 12 12 -1.</_>
        <_>
          4 4 6 6 2.</_>
        <_>
          10 10 6 6 2.</_></rects>
      <tilted>0</tilted></_>
    <_>
      <rects>
        <_>
          4 7 12 6 -1.</_>
        <_>
          4 7 6 3 2.</_>
        <_>
          10 10 6 3 2.</_></rects>
      <tilted>0</tilted></_>
    <_>
      <rects>
        <_>
          4 10 14 10 -1.</_>
        <_>
          4 15 14 5 2.</_></rects>
      <tilted>0</tilted></_>
    <_>
      <rects>
        <_>
          4 17 6 1 -1.</_>
        <_>
          7 17 3 1 2.</_></rects>
      <tilted>0</tilted></_>
    <_>
      <rects>
        <_>
          4 19 2 1 -1.</_>
        <_>
          5 19 1 1 2.</_></rects>
      <tilted>0</tilted></_>
    <_>
      <rects>
        <_>
          5 0 2 20 -1.</_>
        <_>
          6 0 1 20 2.</_></rects>
      <tilted>0</tilted></_>
    <_>
      <rects>
        <_>
          5 0 11 10 -1.</_>
        <_>
          5 5 11 5 2.</_></rects>
      <tilted>0</tilted></_>
    <_>
      <rects>
        <_>
          5 2 10 8 -1.</_>
        <_>
          5 2 5 4 2.</_>
        <_>
          10 6 5 4 2.</_></rects>
      <tilted>0</tilted></_>
    <_>
      <rects>
        <_>
          5 4 3 4 -1.</_>
        <_>
          5 6 3 2 2.</_></rects>
      <tilted>0</tilted></_>
    <_>
      <rects>
        <_>
          5 6 12 14 -1.</_>
        <_>
          9 6 4 14 2.</_></rects>
      <tilted>0</tilted></_>
    <_>
      <rects>
        <_>
          5 6 10 8 -1.</_>
        <_>
          5 6 5 4 2.</_>
        <_>
          10 10 5 4 2.</_></rects>
      <tilted>0</tilted></_>
    <_>
      <rects>
        <_>
          5 10 11 10 -1.</_>
        <_>
          5 15 11 5 2.</_></rects>
      <tilted>0</tilted></_>
    <_>
      <rects>
        <_>
          5 10 15 10 -1.</_>
        <_>
          5 15 15 5 2.</_></rects>
      <tilted>0</tilted></_>
    <_>
      <rects>
        <_>
          5 11 15 8 -1.</_>
        <_>
          5 15 15 4 2.</_></rects>
      <tilted>0</tilted></_>
    <_>
      <rects>
        <_>
          5 12 12 8 -1.</_>
        <_>
          5 16 12 4 2.</_></rects>
      <tilted>0</tilted></_>
    <_>
      <rects>
        <_>
          5 12 14 8 -1.</_>
        <_>
          5 16 14 4 2.</_></rects>
      <tilted>0</tilted></_>
    <_>
      <rects>
        <_>
          5 19 3 1 -1.</_>
        <_>
          6 19 1 1 2.</_></rects>
      <tilted>0</tilted></_>
    <_>
      <rects>
        <_>
          5 19 4 1 -1.</_>
        <_>
          7 19 2 1 2.</_></rects>
      <tilted>0</tilted></_>
    <_>
      <rects>
        <_>
          6 0 14 1 -1.</_>
        <_>
          13 0 7 1 2.</_></rects>
      <tilted>0</tilted></_>
    <_>
      <rects>
        <_>
          6 0 8 12 -1.</_>
        <_>
          6 6 8 6 2.</_></rects>
      <tilted>0</tilted></_>
    <_>
      <rects>
        <_>
          6 0 9 10 -1.</_>
        <_>
          6 5 9 5 2.</_></rects>
      <tilted>0</tilted></_>
    <_>
      <rects>
        <_>
          6 0 9 12 -1.</_>
        <_>
          6 6 9 6 2.</_></rects>
      <tilted>0</tilted></_>
    <_>
      <rects>
        <_>
          6 0 10 10 -1.</_>
        <_>
          6 5 10 5 2.</_></rects>
      <tilted>0</tilted></_>
    <_>
      <rects>
        <_>
          6 1 4 16 -1.</_>
        <_>
          6 9 4 8 2.</_></rects>
      <tilted>0</tilted></_>
    <_>
      <rects>
        <_>
          6 1 14 2 -1.</_>
        <_>
          13 1 7 2 2.</_></rects>
      <tilted>0</tilted></_>
    <_>
      <rects>
        <_>
          6 1 11 2 -1.</_>
        <_>
          6 2 11 1 2.</_></rects>
      <tilted>0</tilted></_>
    <_>
      <rects>
        <_>
          6 4 9 16 -1.</_>
        <_>
          9 4 3 16 2.</_></rects>
      <tilted>0</tilted></_>
    <_>
      <rects>
        <_>
          6 9 2 2 -1.</_>
        <_>
          6 9 1 1 2.</_>
        <_>
          7 10 1 1 2.</_></rects>
      <tilted>0</tilted></_>
    <_>
      <rects>
        <_>
          6 10 4 2 -1.</_>
        <_>
          6 10 2 1 2.</_>
        <_>
          8 11 2 1 2.</_></rects>
      <tilted>0</tilted></_>
    <_>
      <rects>
        <_>
          6 12 12 8 -1.</_>
        <_>
          6 16 12 4 2.</_></rects>
      <tilted>0</tilted></_>
    <_>
      <rects>
        <_>
          6 16 13 2 -1.</_>
        <_>
          6 17 13 1 2.</_></rects>
      <tilted>0</tilted></_>
    <_>
      <rects>
        <_>
          6 18 2 2 -1.</_>
        <_>
          6 18 1 1 2.</_>
        <_>
          7 19 1 1 2.</_></rects>
      <tilted>0</tilted></_>
    <_>
      <rects>
        <_>
          7 0 4 14 -1.</_>
        <_>
          7 7 4 7 2.</_></rects>
      <tilted>0</tilted></_>
    <_>
      <rects>
        <_>
          7 0 13 12 -1.</_>
        <_>
          7 6 13 6 2.</_></rects>
      <tilted>0</tilted></_>
    <_>
      <rects>
        <_>
          7 15 2 2 -1.</_>
        <_>
          7 15 1 1 2.</_>
        <_>
          8 16 1 1 2.</_></rects>
      <tilted>0</tilted></_>
    <_>
      <rects>
        <_>
          8 0 12 1 -1.</_>
        <_>
          14 0 6 1 2.</_></rects>
      <tilted>0</tilted></_>
    <_>
      <rects>
        <_>
          8 8 2 2 -1.</_>
        <_>
          8 8 1 1 2.</_>
        <_>
          9 9 1 1 2.</_></rects>
      <tilted>0</tilted></_>
    <_>
      <rects>
        <_>
          8 10 2 3 -1.</_>
        <_>
          8 11 2 1 2.</_></rects>
      <tilted>0</tilted></_>
    <_>
      <rects>
        <_>
          9 0 1 16 -1.</_>
        <_>
          9 8 1 8 2.</_></rects>
      <tilted>0</tilted></_>
    <_>
      <rects>
        <_>
          9 5 6 10 -1.</_>
        <_>
          11 5 2 10 2.</_></rects>
      <tilted>0</tilted></_>
    <_>
      <rects>
        <_>
          9 5 8 14 -1.</_>
        <_>
          13 5 4 14 2.</_></rects>
      <tilted>0</tilted></_>
    <_>
      <rects>
        <_>
          9 7 3 8 -1.</_>
        <_>
          10 7 1 8 2.</_></rects>
      <tilted>0</tilted></_>
    <_>
      <rects>
        <_>
          9 18 8 2 -1.</_>
        <_>
          9 19 8 1 2.</_></rects>
      <tilted>0</tilted></_>
    <_>
      <rects>
        <_>
          9 19 3 1 -1.</_>
        <_>
          10 19 1 1 2.</_></rects>
      <tilted>0</tilted></_>
    <_>
      <rects>
        <_>
          10 0 10 2 -1.</_>
        <_>
          15 0 5 2 2.</_></rects>
      <tilted>0</tilted></_>
    <_>
      <rects>
        <_>
          10 1 2 16 -1.</_>
        <_>
          11 1 1 16 2.</_></rects>
      <tilted>0</tilted></_>
    <_>
      <rects>
        <_>
          10 1 10 17 -1.</_>
        <_>
          15 1 5 17 2.</_></rects>
      <tilted>0</tilted></_>
    <_>
      <rects>
        <_>
          10 2 10 18 -1.</_>
        <_>
          15 2 5 18 2.</_></rects>
      <tilted>0</tilted></_>
    <_>
      <rects>
        <_>
          10 5 10 12 -1.</_>
        <_>
          15 5 5 12 2.</_></rects>
      <tilted>0</tilted></_>
    <_>
      <rects>
        <_>
          10 5 10 14 -1.</_>
        <_>
          15 5 5 14 2.</_></rects>
      <tilted>0</tilted></_>
    <_>
      <rects>
        <_>
          10 6 1 9 -1.</_>
        <_>
          10 9 1 3 2.</_></rects>
      <tilted>0</tilted></_>
    <_>
      <rects>
        <_>
          10 9 3 1 -1.</_>
        <_>
          11 9 1 1 2.</_></rects>
      <tilted>0</tilted></_>
    <_>
      <rects>
        <_>
          10 19 6 1 -1.</_>
        <_>
          12 19 2 1 2.</_></rects>
      <tilted>0</tilted></_>
    <_>
      <rects>
        <_>
          10 19 6 1 -1.</_>
        <_>
          13 19 3 1 2.</_></rects>
      <tilted>0</tilted></_>
    <_>
      <rects>
        <_>
          10 19 10 1 -1.</_>
        <_>
          15 19 5 1 2.</_></rects>
      <tilted>0</tilted></_>
    <_>
      <rects>
        <_>
          11 7 3 9 -1.</_>
        <_>
          12 7 1 9 2.</_></rects>
      <tilted>0</tilted></_>
    <_>
      <rects>
        <_>
          11 19 8 1 -1.</_>
        <_>
          15 19 4 1 2.</_></rects>
      <tilted>0</tilted></_>
    <_>
      <rects>
        <_>
          12 3 8 16 -1.</_>
        <_>
          16 3 4 16 2.</_></rects>
      <tilted>0</tilted></_>
    <_>
      <rects>
        <_>
          12 5 8 10 -1.</_>
        <_>
          16 5 4 10 2.</_></rects>
      <tilted>0</tilted></_>
    <_>
      <rects>
        <_>
          12 6 8 9 -1.</_>
        <_>
          16 6 4 9 2.</_></rects>
      <tilted>0</tilted></_>
    <_>
      <rects>
        <_>
          12 10 3 1 -1.</_>
        <_>
          13 10 1 1 2.</_></rects>
      <tilted>0</tilted></_>
    <_>
      <rects>
        <_>
          12 10 8 10 -1.</_>
        <_>
          12 10 4 5 2.</_>
        <_>
          16 15 4 5 2.</_></rects>
      <tilted>0</tilted></_>
    <_>
      <rects>
        <_>
          12 17 8 3 -1.</_>
        <_>
          16 17 4 3 2.</_></rects>
      <tilted>0</tilted></_>
    <_>
      <rects>
        <_>
          13 0 6 1 -1.</_>
        <_>
          15 0 2 1 2.</_></rects>
      <tilted>0</tilted></_>
    <_>
      <rects>
        <_>
          13 0 6 20 -1.</_>
        <_>
          16 0 3 20 2.</_></rects>
      <tilted>0</tilted></_>
    <_>
      <rects>
        <_>
          13 4 2 2 -1.</_>
        <_>
          13 4 1 1 2.</_>
        <_>
          14 5 1 1 2.</_></rects>
      <tilted>0</tilted></_>
    <_>
      <rects>
        <_>
          13 4 6 15 -1.</_>
        <_>
          16 4 3 15 2.</_></rects>
      <tilted>0</tilted></_>
    <_>
      <rects>
        <_>
          13 5 1 14 -1.</_>
        <_>
          13 12 1 7 2.</_></rects>
      <tilted>0</tilted></_>
    <_>
      <rects>
        <_>
          13 8 6 6 -1.</_>
        <_>
          16 8 3 6 2.</_></rects>
      <tilted>0</tilted></_>
    <_>
      <rects>
        <_>
          13 13 2 2 -1.</_>
        <_>
          13 13 1 1 2.</_>
        <_>
          14 14 1 1 2.</_></rects>
      <tilted>0</tilted></_>
    <_>
      <rects>
        <_>
          13 19 3 1 -1.</_>
        <_>
          14 19 1 1 2.</_></rects>
      <tilted>0</tilted></_>
    <_>
      <rects>
        <_>
          14 2 6 18 -1.</_>
        <_>
          17 2 3 18 2.</_></rects>
      <tilted>0</tilted></_>
    <_>
      <rects>
        <_>
          14 4 6 13 -1.</_>
        <_>
          17 4 3 13 2.</_></rects>
      <tilted>0</tilted></_>
    <_>
      <rects>
        <_>
          14 10 2 2 -1.</_>
        <_>
          14 10 1 1 2.</_>
        <_>
          15 11 1 1 2.</_></rects>
      <tilted>0</tilted></_>
    <_>
      <rects>
        <_>
          14 19 3 1 -1.</_>
        <_>
          15 19 1 1 2.</_></rects>
      <tilted>0</tilted></_>
    <_>
      <rects>
        <_>
          15 1 4 8 -1.</_>
        <_>
          15 5 4 4 2.</_></rects>
      <tilted>0</tilted></_>
    <_>
      <rects>
        <_>
          15 4 2 2 -1.</_>
        <_>
          15 4 1 1 2.</_>
        <_>
          16 5 1 1 2.</_></rects>
      <tilted>0</tilted></_>
    <_>
      <rects>
        <_>
          15 18 5 2 -1.</_>
        <_>
          15 19 5 1 2.</_></rects>
      <tilted>0</tilted></_>
    <_>
      <rects>
        <_>
          16 0 3 1 -1.</_>
        <_>
          17 0 1 1 2.</_></rects>
      <tilted>0</tilted></_>
    <_>
      <rects>
        <_>
          16 0 2 20 -1.</_>
        <_>
          17 0 1 20 2.</_></rects>
      <tilted>0</tilted></_>
    <_>
      <rects>
        <_>
          16 0 4 1 -1.</_>
        <_>
          18 0 2 1 2.</_></rects>
      <tilted>0</tilted></_>
    <_>
      <rects>
        <_>
          16 0 4 3 -1.</_>
        <_>
          18 0 2 3 2.</_></rects>
      <tilted>0</tilted></_>
    <_>
      <rects>
        <_>
          17 0 3 2 -1.</_>
        <_>
          18 0 1 2 2.</_></rects>
      <tilted>0</tilted></_>
    <_>
      <rects>
        <_>
          17 0 2 18 -1.</_>
        <_>
          18 0 1 18 2.</_></rects>
      <tilted>0</tilted></_>
    <_>
      <rects>
        <_>
          17 0 2 4 -1.</_>
        <_>
          17 2 2 2 2.</_></rects>
      <tilted>0</tilted></_>
    <_>
      <rects>
        <_>
          17 1 2 8 -1.</_>
        <_>
          17 5 2 4 2.</_></rects>
      <tilted>0</tilted></_>
    <_>
      <rects>
        <_>
          17 2 1 2 -1.</_>
        <_>
          17 3 1 1 2.</_></rects>
      <tilted>0</tilted></_>
    <_>
      <rects>
        <_>
          17 4 2 15 -1.</_>
        <_>
          18 4 1 15 2.</_></rects>
      <tilted>0</tilted></_>
    <_>
      <rects>
        <_>
          17 12 3 8 -1.</_>
        <_>
          17 16 3 4 2.</_></rects>
      <tilted>0</tilted></_>
    <_>
      <rects>
        <_>
          17 17 3 3 -1.</_>
        <_>
          18 17 1 3 2.</_></rects>
      <tilted>0</tilted></_>
    <_>
      <rects>
        <_>
          17 17 3 2 -1.</_>
        <_>
          17 18 3 1 2.</_></rects>
      <tilted>0</tilted></_>
    <_>
      <rects>
        <_>
          17 19 3 1 -1.</_>
        <_>
          18 19 1 1 2.</_></rects>
      <tilted>0</tilted></_>
    <_>
      <rects>
        <_>
          18 0 2 19 -1.</_>
        <_>
          19 0 1 19 2.</_></rects>
      <tilted>0</tilted></_>
    <_>
      <rects>
        <_>
          18 0 2 20 -1.</_>
        <_>
          19 0 1 20 2.</_></rects>
      <tilted>0</tilted></_>
    <_>
      <rects>
        <_>
          18 0 2 2 -1.</_>
        <_>
          18 1 2 1 2.</_></rects>
      <tilted>0</tilted></_>
    <_>
      <rects>
        <_>
          18 0 2 6 -1.</_>
        <_>
          18 3 2 3 2.</_></rects>
      <tilted>0</tilted></_>
    <_>
      <rects>
        <_>
          18 1 2 2 -1.</_>
        <_>
          18 1 1 1 2.</_>
        <_>
          19 2 1 1 2.</_></rects>
      <tilted>0</tilted></_>
    <_>
      <rects>
        <_>
          18 2 2 13 -1.</_>
        <_>
          19 2 1 13 2.</_></rects>
      <tilted>0</tilted></_>
    <_>
      <rects>
        <_>
          18 12 2 1 -1.</_>
        <_>
          19 12 1 1 2.</_></rects>
      <tilted>0</tilted></_>
    <_>
      <rects>
        <_>
          18 17 2 2 -1.</_>
        <_>
          18 17 1 1 2.</_>
        <_>
          19 18 1 1 2.</_></rects>
      <tilted>0</tilted></_>
    <_>
      <rects>
        <_>
          18 18 2 2 -1.</_>
        <_>
          18 19 2 1 2.</_></rects>
      <tilted>0</tilted></_>
    <_>
      <rects>
        <_>
          19 0 1 6 -1.</_>
        <_>
          19 3 1 3 2.</_></rects>
      <tilted>0</tilted></_>
    <_>
      <rects>
        <_>
          19 0 1 20 -1.</_>
        <_>
          19 10 1 10 2.</_></rects>
      <tilted>0</tilted></_>
    <_>
      <rects>
        <_>
          19 2 1 8 -1.</_>
        <_>
          19 6 1 4 2.</_></rects>
      <tilted>0</tilted></_>
    <_>
      <rects>
        <_>
          19 8 1 12 -1.</_>
        <_>
          19 14 1 6 2.</_></rects>
      <tilted>0</tilted></_>
    <_>
      <rects>
        <_>
          19 10 1 3 -1.</_>
        <_>
          19 11 1 1 2.</_></rects>
      <tilted>0</tilted></_>
    <_>
      <rects>
        <_>
          19 10 1 10 -1.</_>
        <_>
          19 15 1 5 2.</_></rects>
      <tilted>0</tilted></_>
    <_>
      <rects>
        <_>
          19 11 1 3 -1.</_>
        <_>
          19 12 1 1 2.</_></rects>
      <tilted>0</tilted></_>
    <_>
      <rects>
        <_>
          19 12 1 6 -1.</_>
        <_>
          19 14 1 2 2.</_></rects>
      <tilted>0</tilted></_>
    <_>
      <rects>
        <_>
          19 13 1 6 -1.</_>
        <_>
          19 16 1 3 2.</_></rects>
      <tilted>0</tilted></_>
    <_>
      <rects>
        <_>
          19 14 1 6 -1.</_>
        <_>
          19 17 1 3 2.</_></rects>
      <tilted>0</tilted></_>
    <_>
      <rects>
        <_>
          19 15 1 3 -1.</_>
        <_>
          19 16 1 1 2.</_></rects>
      <tilted>0</tilted></_>
    <_>
      <rects>
        <_>
          19 16 1 4 -1.</_>
        <_>
          19 18 1 2 2.</_></rects>
      <tilted>0</tilted></_></features></cascade>
</opencv_storage>
