<?xml version="1.0"?>
<opencv_storage>
<stage10>
  <maxWeakCount>17</maxWeakCount>
  <stageThreshold>-9.0125745534896851e-01</stageThreshold>
  <weakClassifiers>
    <_>
      <internalNodes>
        0 -1 38694 7.6096266508102417e-02</internalNodes>
      <leafValues>
        -4.7651007771492004e-01 4.2754918336868286e-01</leafValues></_>
    <_>
      <internalNodes>
        0 -1 78450 3.3850430045276880e-03</internalNodes>
      <leafValues>
        1.9068032503128052e-01 -6.1066806316375732e-01</leafValues></_>
    <_>
      <internalNodes>
        0 -1 40281 -7.5909942388534546e-02</internalNodes>
      <leafValues>
        1.8089318275451660e-01 -5.5745333433151245e-01</leafValues></_>
    <_>
      <internalNodes>
        0 -1 14753 -8.8517349213361740e-03</internalNodes>
      <leafValues>
        1.7259867489337921e-01 -6.4600324630737305e-01</leafValues></_>
    <_>
      <internalNodes>
        0 -1 262 -3.5171199589967728e-02</internalNodes>
      <leafValues>
        1.0455904901027679e-01 -7.1520245075225830e-01</leafValues></_>
    <_>
      <internalNodes>
        0 -1 58843 -8.2200225442647934e-03</internalNodes>
      <leafValues>
        -8.6132806539535522e-01 9.3455143272876740e-02</leafValues></_>
    <_>
      <internalNodes>
        0 -1 64358 -6.8059585988521576e-02</internalNodes>
      <leafValues>
        -4.5297840237617493e-01 1.6462668776512146e-01</leafValues></_>
    <_>
      <internalNodes>
        0 -1 78334 -4.7311587259173393e-03</internalNodes>
      <leafValues>
        -5.1036447286605835e-01 1.3792483508586884e-01</leafValues></_>
    <_>
      <internalNodes>
        0 -1 7610 -5.1454366184771061e-03</internalNodes>
      <leafValues>
        -4.9156901240348816e-01 1.4681200683116913e-01</leafValues></_>
    <_>
      <internalNodes>
        0 -1 803 9.0813118731603026e-04</internalNodes>
      <leafValues>
        7.5216196477413177e-02 -7.5600522756576538e-01</leafValues></_>
    <_>
      <internalNodes>
        0 -1 77707 -1.4326896052807570e-03</internalNodes>
      <leafValues>
        -7.2814339399337769e-01 7.9869411885738373e-02</leafValues></_>
    <_>
      <internalNodes>
        0 -1 77705 1.4152900257613510e-04</internalNodes>
      <leafValues>
        -4.3849733471870422e-01 1.4682760834693909e-01</leafValues></_>
    <_>
      <internalNodes>
        0 -1 2679 -3.9177089929580688e-01</internalNodes>
      <leafValues>
        7.0034235715866089e-02 -8.3394002914428711e-01</leafValues></_>
    <_>
      <internalNodes>
        0 -1 17312 -8.5207296069711447e-04</internalNodes>
      <leafValues>
        1.3743537664413452e-01 -4.4454506039619446e-01</leafValues></_>
    <_>
      <internalNodes>
        0 -1 7701 3.9294329471886158e-03</internalNodes>
      <leafValues>
        8.1373751163482666e-02 -6.9536864757537842e-01</leafValues></_>
    <_>
      <internalNodes>
        0 -1 58583 -2.7681079227477312e-03</internalNodes>
      <leafValues>
        -8.8617932796478271e-01 1.1926443316042423e-02</leafValues></_>
    <_>
      <internalNodes>
        0 -1 69601 -1.1932387715205550e-03</internalNodes>
      <leafValues>
        -7.2207099199295044e-01 1.1150862276554108e-01</leafValues></_></weakClassifiers></stage10>
</opencv_storage>
