<?xml version="1.0"?>
<opencv_storage>
<stage0>
  <maxWeakCount>5</maxWeakCount>
  <stageThreshold>-8.3809930086135864e-01</stageThreshold>
  <weakClassifiers>
    <_>
      <internalNodes>
        0 -1 38662 8.4831260144710541e-02</internalNodes>
      <leafValues>
        -6.3208854198455811e-01 8.2428115606307983e-01</leafValues></_>
    <_>
      <internalNodes>
        0 -1 15162 -9.8177742958068848e-01</internalNodes>
      <leafValues>
        6.2821286916732788e-01 -8.0484950542449951e-01</leafValues></_>
    <_>
      <internalNodes>
        0 -1 2928 -5.6284673511981964e-02</internalNodes>
      <leafValues>
        5.9946769475936890e-01 -6.5940922498703003e-01</leafValues></_>
    <_>
      <internalNodes>
        0 -1 716 -5.1532857120037079e-02</internalNodes>
      <leafValues>
        4.5866230130195618e-01 -7.6401197910308838e-01</leafValues></_>
    <_>
      <internalNodes>
        0 -1 60466 1.4645943045616150e-01</internalNodes>
      <leafValues>
        -4.5929124951362610e-01 7.1293842792510986e-01</leafValues></_></weakClassifiers></stage0>
</opencv_storage>
