<?xml version="1.0"?>
<opencv_storage>
<stage6>
  <maxWeakCount>6</maxWeakCount>
  <stageThreshold>-7.9001188278198242e-01</stageThreshold>
  <weakClassifiers>
    <_>
      <internalNodes>
        0 -1 56940 -7.2580337524414062e-02</internalNodes>
      <leafValues>
        -7.8061223030090332e-01 5.5653822422027588e-01</leafValues></_>
    <_>
      <internalNodes>
        0 -1 7143 -7.6732798479497433e-03</internalNodes>
      <leafValues>
        1.9690950214862823e-01 -7.6264554262161255e-01</leafValues></_>
    <_>
      <internalNodes>
        0 -1 34668 -6.6848531365394592e-02</internalNodes>
      <leafValues>
        1.9323405623435974e-01 -7.0719194412231445e-01</leafValues></_>
    <_>
      <internalNodes>
        0 -1 68883 4.6104587614536285e-02</internalNodes>
      <leafValues>
        -6.0423070192337036e-01 2.9385551810264587e-01</leafValues></_>
    <_>
      <internalNodes>
        0 -1 78286 3.6917079705744982e-04</internalNodes>
      <leafValues>
        1.3356864452362061e-01 -7.8081524372100830e-01</leafValues></_>
    <_>
      <internalNodes>
        0 -1 60543 -3.8246959447860718e-02</internalNodes>
      <leafValues>
        -9.0285021066665649e-01 1.3258770108222961e-01</leafValues></_></weakClassifiers></stage6>
</opencv_storage>
