<?xml version="1.0"?>
<opencv_storage>
<stage12>
  <maxWeakCount>26</maxWeakCount>
  <stageThreshold>-9.4544261693954468e-01</stageThreshold>
  <weakClassifiers>
    <_>
      <internalNodes>
        0 -1 71796 3.7331178784370422e-02</internalNodes>
      <leafValues>
        -3.1926122307777405e-01 4.3609023094177246e-01</leafValues></_>
    <_>
      <internalNodes>
        0 -1 34668 -8.8716216385364532e-02</internalNodes>
      <leafValues>
        1.8410661816596985e-01 -5.3505092859268188e-01</leafValues></_>
    <_>
      <internalNodes>
        0 -1 77535 -2.8669675812125206e-03</internalNodes>
      <leafValues>
        -5.5460333824157715e-01 1.5572193264961243e-01</leafValues></_>
    <_>
      <internalNodes>
        0 -1 78427 5.7329386472702026e-03</internalNodes>
      <leafValues>
        1.2431199848651886e-01 -5.2082318067550659e-01</leafValues></_>
    <_>
      <internalNodes>
        0 -1 7547 -1.9070468842983246e-02</internalNodes>
      <leafValues>
        1.4318108558654785e-01 -4.6333760023117065e-01</leafValues></_>
    <_>
      <internalNodes>
        0 -1 44476 9.1183736920356750e-02</internalNodes>
      <leafValues>
        -3.9163419604301453e-01 1.7119167745113373e-01</leafValues></_>
    <_>
      <internalNodes>
        0 -1 22285 1.9842665642499924e-03</internalNodes>
      <leafValues>
        1.0077616572380066e-01 -5.9959548711776733e-01</leafValues></_>
    <_>
      <internalNodes>
        0 -1 28108 -8.9197550551034510e-05</internalNodes>
      <leafValues>
        1.1283857375383377e-01 -5.2080267667770386e-01</leafValues></_>
    <_>
      <internalNodes>
        0 -1 7545 -3.8405030500143766e-04</internalNodes>
      <leafValues>
        -6.2627255916595459e-01 7.5273580849170685e-02</leafValues></_>
    <_>
      <internalNodes>
        0 -1 7545 3.9132108213379979e-04</internalNodes>
      <leafValues>
        9.1049462556838989e-02 -5.6440466642379761e-01</leafValues></_>
    <_>
      <internalNodes>
        0 -1 77711 4.9495319835841656e-03</internalNodes>
      <leafValues>
        6.4399175345897675e-02 -8.0305010080337524e-01</leafValues></_>
    <_>
      <internalNodes>
        0 -1 40590 -1.4813411235809326e-01</internalNodes>
      <leafValues>
        6.1424082517623901e-01 -1.0441987961530685e-01</leafValues></_>
    <_>
      <internalNodes>
        0 -1 30533 -9.1518253087997437e-02</internalNodes>
      <leafValues>
        4.9317923188209534e-01 -1.4065276086330414e-01</leafValues></_>
    <_>
      <internalNodes>
        0 -1 24325 5.3930945694446564e-02</internalNodes>
      <leafValues>
        -1.7378108203411102e-01 4.6096894145011902e-01</leafValues></_>
    <_>
      <internalNodes>
        0 -1 78456 -2.3973518982529640e-03</internalNodes>
      <leafValues>
        -9.0523922443389893e-01 8.0782450735569000e-02</leafValues></_>
    <_>
      <internalNodes>
        0 -1 40707 -7.6004490256309509e-03</internalNodes>
      <leafValues>
        -6.3040518760681152e-01 4.6468477696180344e-02</leafValues></_>
    <_>
      <internalNodes>
        0 -1 120 -4.3146582902409136e-04</internalNodes>
      <leafValues>
        1.1571282148361206e-01 -4.8209005594253540e-01</leafValues></_>
    <_>
      <internalNodes>
        0 -1 4238 -2.1632732450962067e-01</internalNodes>
      <leafValues>
        3.3290761709213257e-01 -1.6226650774478912e-01</leafValues></_>
    <_>
      <internalNodes>
        0 -1 28489 7.2732374072074890e-02</internalNodes>
      <leafValues>
        -1.4669701457023621e-01 3.8891786336898804e-01</leafValues></_>
    <_>
      <internalNodes>
        0 -1 69822 2.4201506748795509e-02</internalNodes>
      <leafValues>
        -1.4633119106292725e-01 3.5741952061653137e-01</leafValues></_>
    <_>
      <internalNodes>
        0 -1 13505 -2.1313102915883064e-02</internalNodes>
      <leafValues>
        5.0965929031372070e-01 -1.1863680183887482e-01</leafValues></_>
    <_>
      <internalNodes>
        0 -1 54657 -3.6755211651325226e-02</internalNodes>
      <leafValues>
        4.1213250160217285e-01 -1.0531657189130783e-01</leafValues></_>
    <_>
      <internalNodes>
        0 -1 9309 -2.5764518976211548e-01</internalNodes>
      <leafValues>
        4.8012813925743103e-01 -1.0051790624856949e-01</leafValues></_>
    <_>
      <internalNodes>
        0 -1 78452 -9.6605084836483002e-03</internalNodes>
      <leafValues>
        1.6629348695278168e-01 -3.4372341632843018e-01</leafValues></_>
    <_>
      <internalNodes>
        0 -1 12568 -3.1301236152648926e-01</internalNodes>
      <leafValues>
        -4.5190557837486267e-01 9.4366580247879028e-02</leafValues></_>
    <_>
      <internalNodes>
        0 -1 78195 -6.3612102530896664e-04</internalNodes>
      <leafValues>
        -8.3913451433181763e-01 5.3878538310527802e-02</leafValues></_></weakClassifiers></stage12>
</opencv_storage>
